{"version":2,"tick":21587,"totalBirths":2142,"totalDeaths":1992,"maxGeneration":29,"nextId":13662,"creatures":[{"x":957.9,"y":329.75,"angle":-86.443,"energy":138.5,"age":12970,"generation":15,"parentId":3161,"bodyGenes":{"size":14,"maxSpeed":3.5,"turnSpeed":0.12122814589052305,"hue":344.9811623807687,"saturation":70.56763507813017,"aggression":0.7201400123115937,"efficiency":1.5},"brain":{"w1":[-0.3121,-0.2657,-0.6648,0.0557,-0.0001,-0.0615,0.3191,0.8892,-0.6085,0.7225,0.9851,-0.5619,-1.1433,0.2181,-0.9484,0.5435,-1.207,-0.4193,-0.3263,-0.5682,-0.9831,-0.1878,0.3851,0.3289,0.3479,1.0602,-0.5197,-0.18,-1.1884,0.0913,0.4968,0.3406,-0.3871,0.6174,0.009,0.3968,-0.7902,0.6339,-0.1489,-0.0378,0.9803,-0.0122,-0.1978,0.1991,0.8892,-0.4505,-1.2239,-0.274,0.1396,0.3994,-0.2804,0.2007,-0.8756,0.7706,-0.3672,-0.7363,-0.559,0.8665,-0.471,-0.2783,-1.0346,-0.617,-1.0972,-0.0052,0.7981,0.7751,0.904,1.0585,-1.0398,0.1673,0.9517,0.6442,-0.8852,-0.0681,0.8033,-0.3097,0.5277,-0.4001,-1.0601,-0.3721,-1.1701,-1.5885,0.5628,-0.7195,-1.0264,-0.1218,0.9115,0.3842,1.1661,-0.3775,-0.3158,-0.318,-0.2138,-0.0288,-0.5039,0.0836,0.3571,0.9079,-0.6005,1.18,0.4113,0.986,0.0829,-0.7509,0.1016,-0.3785,0.8536,1.2819,-0.1494,-0.3255,0.2891,1.014,0.5474,0.5205,0.2936,0.2279,-1.0056,0.9731,0.5483,-0.5606,1.3165,0.3701,0.4448,0.8265,0.2335,-0.5638,-0.4813,-0.0115,-0.3377,-1.1011,-0.2728,-0.8922,1.7222,0.4192,0.8087,0.4042,-0.6578,-0.2143,0.8459,0.9018,-0.2047,0.2325,0.9362,0.866,0.2093,-0.0223,-0.8005,0.8825,-1.2092,-0.2104,0.2587,-0.3254,-0.4296,0.8059,0.8622,1.1095,0.1547,0.5018,-0.2947,0.402],"b1":[0,0.3186,0.1289,0,0.2612,-0.2989,0.1164,-0.4319,0.0489,0.3037],"w2":[0.0854,-1.1266,0.7577,-0.0732,-0.6173,1.0406,0.7015,0.4894,-0.5329,0.3406,0.1532,-0.8961,-0.1852,0.1381,0.5087,0.2562,0.7801,-0.5339,-0.7956,0.4357,-0.6885,-0.6326,1.0444,-0.2637,0.3988,1.0858,-0.8057,0.382,0.3816,1.6236,0.2739,-0.5619,0.614,0.9149,0.3851,0.2387,0.4101,-0.6219,0.7733,-0.1925,0.0689,-1.4455,0.74,-0.0193,0.1413,0.2351,0.6151,-0.2287,-0.6209,0.1007,0.5854,-0.7118,1.4527,0.8427,-1.159,0.7996,0.3791,1.0011,-0.3151,0.3431,-0.5661,-1.2445,-0.3957,-0.5422,-1.319,0.1744,0.4019,1.2149,0.6326,-0.6096,1.1406,-0.6136,0.2427,-0.7485,0.243,0.4353,0.4909,0.4325,1.0091,1.3083],"b2":[-0.6704,0,-0.5981,-0.6362,0.7822,0.0259,0.4651,0.0191],"w3":[-0.8157,0.7301,-0.9665,0.5021,0.5552,-0.8959,1.1642,-0.4497,0.2826,0.0004,-0.1072,1.4471,0.6743,-0.0938,0.1206,-0.3466,1.2267,-0.161,0.3999,0.3277,-0.322,-1.0634,-0.349,-0.1214,0.9995,-0.5269,0.0243,0.8364,-0.8648,-0.1678,-0.1438,0.6583],"b3":[-0.1169,0.6505,0.4643,0.2016]},"kills":0,"foodEaten":57,"children":10,"reproductionCooldown":0},{"x":790.75,"y":469.56,"angle":-124.559,"energy":82.4,"age":7918,"generation":18,"parentId":6729,"bodyGenes":{"size":14,"maxSpeed":3.5,"turnSpeed":0.05,"hue":297.66559434621985,"saturation":86.20844758802531,"aggression":0.4517182979158231,"efficiency":1.5},"brain":{"w1":[-0.4833,0.0099,-0.8917,0.1032,-0.1869,-0.2647,0.1823,0.6233,-0.6085,0.9402,1.1019,-0.5985,-1.6988,0.3001,-0.6861,0.5355,-1.1319,-1.0483,-0.6031,-0.7034,-0.8708,-0.6301,0.6228,0.5399,0.2184,1.0602,-0.5197,0.275,-1.5169,0.0913,0.4968,-0.5329,-0.4224,0.6775,-0.1306,0.4488,-0.5452,0.6339,0.159,-0.2744,0.9803,0.4706,-0.9555,0.0647,0.7354,-0.0789,-0.8979,-0.7665,-0.3301,0.3933,-0.2804,0.2007,-0.8232,0.7106,-0.3164,-0.4099,-0.6432,0.8665,-0.5721,0.1467,-1.1312,-0.9824,-0.5458,-0.0722,1.109,0.4216,0.5649,1.0585,-0.8961,0.1969,0.6146,0.4654,-0.9087,-0.2449,0.1104,-0.3097,0.0658,-0.235,-0.5424,-0.4775,-0.9907,-1.5885,0.4671,-0.8121,-0.8201,-0.2671,0.9845,0.8509,1.1512,-0.8494,-0.1151,0.0413,-0.7154,-0.0027,-0.3294,0.4107,0.9271,0.8199,-1.0032,0.9758,0.3134,0.6363,0.0567,-0.7669,-0.0953,-0.7372,0.99,0.9937,0.6029,-0.4546,0.666,1.014,1.0603,0.2028,0.2917,-0.1572,-1.3688,0.8971,0.596,-0.1996,0.1864,0.3701,0.4376,1.1409,-0.0674,-0.2764,-0.5244,-0.4003,-0.57,-1.0477,-0.3893,-2,1.0063,0.6394,0.5,0.6756,-1.0415,0.1012,0.8459,0.5332,-0.1074,-0.0487,1.1132,1.3207,0.5085,0.0191,-0.537,1.1173,-1.4389,-0.3422,0.4873,-0.5527,-0.5528,0.8059,0.5767,1.1095,0.1089,0.4954,-0.1193,0.402],"b1":[0.2525,0.3186,-0.0965,0.4763,0.1788,0,0.2895,-0.371,0.0489,0.2373],"w2":[0.1343,-0.8164,1.1824,-0.0732,-0.6173,1.0406,0.7257,0.9261,-0.4828,0.3406,0.1532,-0.6901,-0.7033,-0.4338,0.2455,0.7103,1.3912,-1.0611,-0.6531,0.3098,-0.4938,-0.38,0.7722,-0.1277,-0.1603,1.3161,-0.6304,0.1397,1.0049,0.6806,0.0944,-0.6577,0.2215,1.6175,0.5244,0.1148,0.0301,-0.8827,1.0067,0.1507,0.0151,0.1697,0.4242,-0.0462,0.6795,0.158,0.8901,-0.3509,-1.0262,0.8382,0.7143,-1.0064,1.3238,0.8238,-1.2607,1.5469,0.8046,0.8572,-0.6183,-0.1248,0.2048,-1.153,-0.4554,-0.6397,-1.2057,-0.079,0.1564,1.4718,0.7308,-0.8139,1.6212,-0.6136,0.2223,-0.5531,-0.0205,0.4353,0.3279,0.621,0.2865,0.7897],"b2":[-0.5924,0,-0.6621,-0.6506,0.5405,0.0536,0.3242,0.1402],"w3":[-1.4342,0.608,-0.9665,0.6861,-0.1313,-0.8959,2,-0.7578,0.1485,0.2354,-0.172,1.2619,0.3912,-0.8472,0.0773,-0.6658,0.4021,0.0237,-0.7254,0.4199,-0.4457,-0.5159,-0.349,0.8577,0.6987,-0.1589,-0.2155,1.2072,-0.7581,0.651,0.1274,0.2262],"b3":[-0.2586,0.5314,0.0194,0.0845]},"kills":0,"foodEaten":28,"children":3,"reproductionCooldown":0},{"x":907.74,"y":509.13,"angle":-425.755,"energy":81.4,"age":7675,"generation":19,"parentId":4943,"bodyGenes":{"size":14,"maxSpeed":3.5,"turnSpeed":0.1078984193773784,"hue":110.45271721314748,"saturation":67.87562386354331,"aggression":0.4918501686542107,"efficiency":1.3276387034062327},"brain":{"w1":[0.5849,-0.4018,-0.9015,0.0557,0.0904,-0.2647,-0.2853,0.8892,-0.7038,0.8839,0.496,-0.6302,-1.208,-0.0393,-1.2535,0.4116,-0.8806,-0.9665,-0.3537,-0.076,-0.8431,-0.1552,0.6228,0.5644,0.3889,0.0094,-0.9669,-0.3282,-1.683,0.3189,-0.4317,-0.0955,-0.2386,0.6202,-0.3666,0.6722,-0.2244,1.1562,-0.1489,-0.1143,1.1197,0.5396,-0.9298,0.6263,1.2107,0.346,-1.081,-0.5845,0.1124,-0.1444,-0.1546,-0.0037,-0.597,0.5353,-0.2724,-0.4337,-0.4514,0.9356,-0.5891,-0.0424,-1.5858,-0.3465,-0.9498,-0.207,1.108,1.1376,1.2983,1.0585,-1.0242,0.3258,0.656,0.6442,-0.8852,-0.4286,-0.2923,-0.5728,0.0125,-0.596,-0.8369,-0.0811,-1.2985,-2,0.5268,-1.4332,-1.1385,0.0372,0.48,1.4227,0.841,-0.7195,-0.5248,-0.318,-0.9446,0.251,-0.7161,0.2215,0.871,0.8723,-0.9502,0.9931,0.3134,0.8775,0.0829,-0.613,-0.4994,-0.3785,0.5911,1.2107,-0.3409,0.0672,0.666,0.9751,0.8293,0.4526,0.5978,-0.32,-1.0056,1.0849,0.4597,-0.3095,0.544,0.5649,0.0053,1.6192,-0.0877,-0.7007,-0.7801,0.0508,-0.2817,-0.9025,-0.5923,-0.7486,0.5649,0.4192,0.5534,0.3323,-0.505,0.4749,0.6399,0.5754,-0.3528,0.0998,0.3398,1.8157,-0.0455,0.0494,-0.7437,0.8825,-1.3544,-0.2104,0.7789,-0.1033,-1.752,0.99,1.3304,1.2143,-0.1674,0.5102,-0.3497,0.4203],"b1":[-0.2777,0.493,0.483,0,0.344,0.6074,0.519,0,-0.6425,-0.204],"w2":[0.2543,-0.6203,1.7529,-0.0732,-0.6165,1.0406,0.4856,0.7369,-0.4828,0.1983,0.1532,-1.264,-0.5973,-1.0433,0.6333,0.0069,1.3357,-0.496,-0.4576,0.4068,-0.5702,-0.9351,0.6912,-0.395,0.5331,1.0858,-0.5856,0.382,0.7905,0.7406,0.5407,-0.3753,0.4233,1.1869,0.6941,0.2811,0.5466,-1.0264,0.7574,-0.1925,-0.4092,-0.8552,0.7172,-0.1122,0.2349,0.3757,0.6151,-0.3341,-1.0605,0.6319,0.3155,-0.4695,1.3238,0.6034,-1.3068,1.0474,0.9604,0.8572,-0.1957,-0.0556,0.0395,-1.8145,-0.3694,-0.7252,-1.4067,-0.0441,0.4019,1.6637,0.7308,-0.4546,1.3928,-0.6136,0.6523,-1.3915,0.2279,0.4353,0.8552,0.728,1.4063,0.7619],"b2":[-0.6704,0.4204,-0.196,-0.5944,0.2538,-0.8465,0.3242,0.2758],"w3":[-1.4342,0.7101,-1.146,0.6861,-0.1863,-0.358,1.7578,-0.9553,0.01,0.2247,-1.0339,0.7988,0.875,-0.6993,0.4453,-0.6658,1.1116,0.5851,0.9852,0.5343,-0.1867,-0.9325,-0.1402,0.2426,0.5316,-0.5269,0.125,1.1801,-1.0393,0.9491,0.1307,0.3771],"b3":[-0.1169,1.3313,0.2126,-0.3904]},"kills":0,"foodEaten":42,"children":7,"reproductionCooldown":0},{"x":1570.77,"y":690.9,"angle":11.784,"energy":10.4,"age":6348,"generation":18,"parentId":7011,"bodyGenes":{"size":14,"maxSpeed":2.6521326705367256,"turnSpeed":0.14921422170707976,"hue":134.9964211318778,"saturation":60.600742880494316,"aggression":0.3209829279443947,"efficiency":1.489764107324704},"brain":{"w1":[-0.3038,-0.2657,-0.7496,-0.1532,-0.0001,-0.3686,0.2755,0.6362,-0.7038,0.8301,1.4158,-0.5619,-1.6857,0.3979,-1.318,0.5234,-0.6705,-0.5441,-0.9096,-0.843,-0.5764,-0.3176,0.6228,0.6833,0.3479,1.0602,-0.5197,-0.5879,-1.3388,0.3189,0.4968,-0.5329,-0.281,0.5903,-0.0301,0.4782,-0.3062,0.7147,-0.1489,-0.0456,0.9803,0.2879,-1.1942,0.4715,0.2302,0.2472,-1.4068,-0.5845,0.06,0.0193,-0.2415,-0.1973,-0.6062,0.0249,-0.4114,-0.4337,-0.4514,0.8665,-0.6996,0.124,-1.0462,-0.3053,-0.7758,-0.0899,1.0014,0.5699,0.6689,1.4916,-1.3386,0.1555,0.5431,0.3929,-0.4496,-0.4286,-0.1118,-0.3097,0.0125,-0.596,-1.0601,0.0878,-0.9907,-1.5885,0.3586,-0.8297,-1.1426,-0.311,0.3126,0.8509,0.8746,-0.5825,-0.7845,-0.4379,-1.808,0.251,-0.44,0.4619,0.871,0.6088,-1.1451,0.8622,0.3134,0.8775,0.0876,-0.7177,-0.3683,-0.6483,0.8536,0.8585,-0.3409,-0.5512,0.3729,1.014,0.8293,0.5486,0.2075,0.2035,-1.1118,1.2127,0.4771,-0.611,0.7742,0.9093,0.0053,1.2373,-0.0877,-0.5638,-0.6734,-0.2206,-0.57,-0.9025,-0.943,-1.1532,0.9945,0.4192,0.5534,0.3323,-0.6326,0.4749,1.0931,0.5332,-0.2047,0.0759,0.7506,1.3207,0.351,-0.0505,-0.6895,0.8825,-1.5442,-0.386,0.6331,-0.2985,-1.0869,0.8046,0.8622,1.2143,-0.0349,0.4201,-0.3295,0.2046],"b1":[0.0823,0.4781,0.483,0.1951,0.5799,0,0.0079,0.027,0.0489,-0.035],"w2":[0.4683,-0.9261,1.4475,-0.0732,-1.0911,0.6319,0.4134,0.7369,-0.4291,0.2271,0.1532,-0.8894,-0.4868,-0.5157,0.6333,-0.2234,1.3618,-0.5697,-0.5554,0.4745,-0.4836,-0.6326,0.2299,-0.3798,0.856,1.5838,-0.9963,0.2501,0.6459,0.7173,0.0623,-0.3753,1.1276,0.9978,0.0177,1.1597,-0.1342,-0.4843,1.19,-0.1925,0.3135,-0.9767,0.9324,-0.5142,0.1413,0.2849,0.8071,-0.5005,-0.3621,0.6319,0.7687,-0.7118,1.3238,0.6262,-1.3068,0.8947,1.122,1.0126,-0.1957,0.7303,0.0395,-1.8145,-0.6393,-0.795,-1.449,-0.079,0.6323,1.639,0.7308,-0.7639,0.6635,-0.6136,0.6041,-0.7485,0.1417,0.4275,1.32,0.8511,0.6343,0.592],"b2":[-0.0805,0.0191,-0.2018,-0.3969,0.254,0.0259,0.5358,-0.568],"w3":[-1.4342,0.839,-0.9665,0.6861,0.1968,-0.8959,1.2166,-0.699,0.3754,0.2354,-0.038,0.9319,0.3347,-0.0702,0.0773,-0.6658,0.7078,0.2852,0.4819,0.4199,-0.322,-0.9325,0.3825,-0.0255,0.8012,-0.8736,0.3387,1.0659,-0.8209,0.362,0.0398,0.4091],"b3":[-0.1369,1.1751,0.3559,0.0845]},"kills":0,"foodEaten":20,"children":2,"reproductionCooldown":0},{"x":1351.84,"y":276.07,"angle":-2.11,"energy":81.6,"age":6060,"generation":19,"parentId":8599,"bodyGenes":{"size":14,"maxSpeed":3.5,"turnSpeed":0.05,"hue":91.30868647109332,"saturation":59.673796269123756,"aggression":0.7928537175250789,"efficiency":1.5},"brain":{"w1":[0.3537,-0.2657,-0.8757,0.0557,0.0904,-0.2647,-0.2853,0.8892,-0.8147,1.0961,0.496,-0.5619,-1.2318,-0.0947,-1.2306,0.6906,-0.4081,-0.9665,-0.3537,0.1685,-0.8431,-0.1552,0.6228,0.7393,0.3889,0.6615,-0.6205,-0.476,-1.2688,0.3189,-0.3164,-0.5329,-0.2386,0.7767,0.0056,0.4782,-0.3062,1.1562,-0.1467,-0.1143,1.1197,0.5396,-0.9298,0.4715,0.8892,0.6127,-1.081,-0.5845,0.1396,-0.1444,-0.1546,-0.0037,-0.597,0.3518,-0.2724,-0.4337,-0.4514,0.9356,-0.5891,0.124,-1.0319,-0.3955,-0.9498,-0.0899,1.1219,1.1376,1.0253,1.0585,-1.0242,0.2125,0.6146,0.7569,-0.9573,-0.4286,-0.2923,-0.5728,0.0125,-0.476,-1.0947,-0.0025,-0.9945,-2,0.731,-1.4332,-1.3619,0.017,0.48,1.0491,0.8274,-0.7195,0.0847,0.0763,-0.7709,0.251,-0.44,-0.067,0.871,0.9762,-1.0252,0.9931,0.3134,1.1381,-0.4023,-0.3145,-0.4994,-0.3785,0.5911,1.0266,-0.494,0.3462,0.6957,0.9751,0.9679,0.6937,0.5978,-0.32,-1.1984,1.0849,0.4597,-0.3095,0.5142,0.5649,0.0053,1.888,-0.0877,-0.7007,-0.5193,0.5678,-0.2817,-0.8812,-0.5923,-0.7486,0.5327,0.9889,0.5534,0.4178,-0.6326,0.829,0.6399,0.5332,-0.3528,0.0998,1.0821,1.8157,0.1776,0.0494,-0.6895,0.8825,-1.027,-0.2104,0.7789,0.0678,-1.034,0.99,1.6704,1.3061,-0.1674,0.5102,-0.3497,0.4203],"b1":[-0.2777,0.493,0.7387,0,0.5338,0.1163,0.2818,0,-0.1465,0.1096],"w2":[-0.1394,-1.3085,2,0.1649,-0.6165,1.0406,0.4856,0.7369,-0.4828,0.514,0.1532,-1.264,-0.5801,-0.9862,0.4621,0.0069,1.3357,-0.5697,-0.4576,0.6566,-0.7805,-0.7345,0.6912,-0.4179,0.1086,1.0858,-0.5856,0.382,0.5219,0.7406,0.5407,-0.3753,0.4233,0.6298,0.6941,0.2811,0.5466,-0.6456,0.7574,-0.1925,0.115,-0.8552,0.4641,-0.1122,0.1413,-0.0936,0.5704,-0.3341,-1.0056,0.4185,0.5854,-0.4695,0.8741,0.5191,-1.3068,1.0424,0.9604,1.1614,0.151,-0.0556,0.0395,-1.5883,-0.3957,-0.9977,-1.3175,-0.0441,0.4019,1.6637,0.7308,-0.4546,1.2433,-0.6136,1.0665,-1.0788,0.3155,0.4353,0.9166,0.4325,1.4063,0.7619],"b2":[-0.8653,0.42,-0.196,-0.593,0.2538,-0.8465,0.3242,-0.2056],"w3":[-1.4342,0.7101,-1.146,0.6861,0.0653,-0.358,1.7578,-0.6885,0.1485,0.2354,-1.1853,0.7988,0.917,-0.6993,0.0773,-0.6658,1.1116,0.2852,0.9852,0.5343,-0.018,-0.9325,0.2576,0.2426,0.8012,-0.5269,0.0593,0.5924,-0.8648,0.9491,0.6232,0.3771],"b3":[-0.1169,1.3313,0.2126,-0.3904]},"kills":0,"foodEaten":20,"children":1,"reproductionCooldown":0},{"x":792.99,"y":793.31,"angle":5.314,"energy":91.8,"age":5812,"generation":20,"parentId":6424,"bodyGenes":{"size":14,"maxSpeed":3.5,"turnSpeed":0.1078984193773784,"hue":37.465850758470424,"saturation":50.98380525570518,"aggression":0.7201400123115937,"efficiency":1.431756047665237},"brain":{"w1":[0.5849,-0.5491,-0.9015,0.0557,0.1402,-0.2647,-0.2853,0.8892,-0.7038,0.8946,1.2663,-0.5619,-1.4845,-0.0947,-1.2535,0.5435,-0.8806,-0.9665,-0.3537,-0.1217,-0.8964,-0.1552,0.6228,0.5644,0.5065,0.7622,-0.5197,-0.476,-0.8926,0.6778,-0.3164,-0.5329,-0.2386,0.571,0.0056,0.4869,-0.1081,1.1562,0.1466,-0.1143,1.1197,0.5396,-0.9472,0.4715,0.8892,0.4034,-0.8907,-0.7479,-0.4303,-0.2038,0.3523,0.0092,-0.3789,0.1853,-0.2724,-0.4337,-0.4514,0.8583,-0.4731,0.124,-1.0319,-0.1005,-0.652,-0.1537,1.108,1.0652,0.9756,1.0585,-1.3144,0.2125,0.7972,0.6442,-0.8852,-0.1739,0.2038,-0.5728,0.0125,-0.596,-1.0202,-0.3279,-0.8807,-2,0.5268,-1.4332,-0.8686,-0.0591,0.0474,0.4829,0.8274,-0.7195,-0.2547,-0.4629,-0.7559,0.251,-0.44,0.2215,0.871,0.9762,-0.9502,0.9931,0.3134,0.5672,-0.0681,-0.613,-0.4994,-0.3785,0.8389,1.0266,-0.3409,-0.4358,0.666,0.6796,0.8293,0.3379,0.5978,-0.356,-1.0056,1.0849,0.4597,-0.3095,1.0537,0.2888,0.0053,1.6192,-0.0877,-0.9456,-0.7472,-0.1031,-0.7448,-0.9025,-0.5923,-0.3423,0.8185,0.4192,0.5534,0.3323,-0.6326,0.4749,0.6399,0.5332,-0.3528,0.0998,1.0449,1.8157,0.1022,0.2286,-1.0235,1.3872,-1.2132,-0.2104,0.9693,-0.12,-1.3095,0.99,1.3304,0.7139,-0.1674,0.5102,-0.3497,0.5299],"b1":[-0.2777,0.493,0.483,0,0.5338,0.1163,0.519,0,0.0489,0.2916],"w2":[0.2543,-0.7534,1.7529,-0.0732,-0.6165,1.3227,0.4856,0.5602,-0.4828,0.6997,0.1532,-1.264,-0.7038,-0.9977,0.5777,0.0069,1.6064,-1.0718,-0.4576,0.6566,-0.5702,-0.9776,0.6912,-0.4179,0.162,1.0387,-0.5856,0.382,0.7905,0.7406,0.5407,-0.3753,0.4233,1.1869,0.6941,0.2053,0.5632,-0.6456,0.7574,-0.4311,-0.5824,-0.8939,0.255,-0.1122,0.1413,-0.0584,0.142,-0.1187,-0.5982,0.6319,0.5854,-0.4695,1.3238,0.5493,-1.3068,1.0474,0.9604,0.64,-0.1957,-0.0925,0.0395,-1.8145,-0.2311,-0.7252,-1.4067,-0.0884,0.4019,1.7329,0.7308,-0.3828,1.2433,-0.2863,0.6523,-0.9986,0.2279,0.4905,0.8331,0.4325,1.3816,0.7619],"b2":[-0.6704,0.42,-0.196,-0.5944,0.2538,-0.8465,0.4388,-0.2056],"w3":[-1.4342,0.7101,-1.146,0.939,0.0653,-0.2949,1.7578,-0.699,0.1485,0.1642,-1.2374,0.7988,1.1872,-0.6244,0.0773,-0.6658,0.6514,0.3193,0.9852,0.5343,-0.1867,-0.9325,0.0269,-0.1243,0.8012,-0.5269,0.1196,0.5924,-1.1673,0.7077,-0.1996,0.1043],"b3":[-0.0181,1.3148,0.3201,-0.3904]},"kills":1,"foodEaten":18,"children":2,"reproductionCooldown":0},{"x":1245.83,"y":115.94,"angle":0.45,"energy":85.3,"age":5761,"generation":18,"parentId":3749,"bodyGenes":{"size":14,"maxSpeed":3.5,"turnSpeed":0.1078984193773784,"hue":91.30868647109332,"saturation":79.95551918880805,"aggression":0.7201400123115937,"efficiency":1.5},"brain":{"w1":[0.5849,-0.2657,-0.9015,0.0557,0.0904,0.2034,-0.2853,0.5767,-0.7038,0.8507,0.496,-0.5619,-1.2318,-0.0947,-1.2535,0.5435,-0.8806,-0.9665,-0.3537,0.2102,-0.8431,-0.1552,0.6228,0.5644,0.3889,0.6615,-0.5197,-0.476,-1.1658,0.3189,-0.6229,-0.5329,-0.2386,0.6202,0.0056,0.4782,-0.3062,1.1562,-0.1489,-0.1143,1.1197,0.4001,-0.9298,0.4715,1.2202,0.346,-1.081,-0.5845,0.1396,-0.1444,-0.603,-0.0037,-0.597,0.5353,-0.2724,-0.4337,-0.4514,0.9356,-0.1961,0.124,-1.0319,-0.3465,-0.9292,-0.0899,1.108,1.1376,1.0253,1.0175,-1.0242,0.2125,0.6146,0.6442,-0.6921,-0.4286,-0.2923,-0.5728,0.0125,-0.596,-1.0202,-0.0811,-0.9945,-2,0.5268,-1.4332,-1.0264,0.0372,0.48,0.8542,0.8274,-0.7195,-0.2547,-0.318,-0.7709,0.251,-0.44,0.2215,0.871,0.9762,-0.9502,0.9931,0.0068,0.8775,-0.4371,-0.613,-0.4994,-0.3785,0.5911,1.4362,-0.3409,0.146,0.666,0.9751,0.8293,0.9491,0.5978,-0.32,-1.0056,1.0849,0.4597,-0.3095,0.544,0.5649,0.0053,1.6192,-0.0877,-0.6731,-0.5193,0.0508,-0.2817,-0.9025,-0.5923,-0.7486,0.6992,0.4192,0.5534,0.3323,-0.6326,0.4749,0.6399,0.5332,-0.3673,0.0998,0.7506,1.8157,0.1776,0.0133,-0.6895,0.8825,-1.2132,-0.2104,0.7789,-0.12,-1.3095,0.99,1.3304,1.2143,-0.1674,0.5102,-0.3497,0.4203],"b1":[-0.2777,0.493,0.483,0,0.5338,0.1163,0.519,0,0.0489,0.1096],"w2":[0.2543,-0.6332,1.7529,-0.0732,-0.6165,1.0406,0.5518,0.7369,-0.4828,0.3406,0.1532,-1.264,-0.7172,-1.0433,0.6333,0.0069,1.3357,-0.5697,-0.4576,0.6566,-0.5702,-0.7345,0.6912,-0.4179,0.162,1.0858,-0.7984,0.382,0.7905,0.7406,0.5407,-0.3753,0.4233,1.1869,0.6941,0.2811,0.5466,-0.6456,0.7574,-0.2696,-0.1163,-0.8552,0.4641,-0.1122,0.1192,0.6108,0.6151,-0.3341,-0.7598,0.6319,0.8407,-0.5109,1.3238,0.5493,-1.3068,1.0474,0.9604,0.8572,-0.1957,-0.0556,0.0395,-1.5437,-0.3957,-0.7252,-1.4563,-0.0441,0.4019,1.6637,0.7308,-0.4546,1.4817,-0.6136,0.7745,-0.9986,0.2279,0.4353,0.9166,0.4325,1.4063,0.7619],"b2":[-0.6704,0.42,-0.196,-0.5944,0.2538,-0.8465,0.3242,-0.2056],"w3":[-1.4342,0.7101,-1.3066,0.6861,0.0653,-0.358,1.7578,-0.5785,0.1485,0.2354,-1.3589,0.7988,0.875,-0.6993,0.0773,-0.6658,1.1116,0.2852,0.9852,0.5343,-0.1867,-0.9325,0.6061,0.2426,0.8012,-0.5269,0.125,0.8195,-0.8648,1.0232,0.2226,0.3771],"b3":[-0.1169,1.3313,0.2126,-0.3904]},"kills":0,"foodEaten":24,"children":4,"reproductionCooldown":0},{"x":441.45,"y":433.19,"angle":-206.741,"energy":84.7,"age":5418,"generation":14,"parentId":8934,"bodyGenes":{"size":14,"maxSpeed":3.1156448237066825,"turnSpeed":0.1078984193773784,"hue":134.9964211318778,"saturation":60.600742880494316,"aggression":0.7201400123115937,"efficiency":1.5},"brain":{"w1":[-0.0651,-0.2657,-0.9101,0.0557,-0.0001,-0.5842,0.3175,0.8892,-0.6085,0.6653,0.9116,-0.6269,-1.2318,0.334,-0.796,-0.0218,-0.7971,-0.7272,-0.4666,-0.555,-0.7615,-0.5012,0.6228,0.5601,0.3479,1.6108,-0.5197,-0.2105,-0.9673,0.0913,0.5703,-0.4916,-0.2915,0.6775,-0.1306,0.3968,-0.6428,0.5143,-0.1489,-0.0882,1.3121,0.4706,-1.1675,0.4715,0.8892,-0.171,-0.374,-0.274,0.1396,0.3933,-0.2804,0.2007,-0.6062,0.4317,-0.7474,-0.0084,-0.5049,0.8606,0.0362,-0.1347,-1.0319,-0.5415,-0.6294,-0.0722,0.7981,0.7751,0.6689,1.0585,-0.8961,0.1555,0.6146,0.6442,-0.8852,-0.4286,-0.1931,-0.3097,-0.4008,-0.4001,-1.0601,-0.3721,-0.9261,-1.9669,0.5628,-0.5997,-1.0264,-0.1218,0.3643,0.8509,0.8746,-0.7113,-0.273,-0.7507,-0.7154,-0.0288,-0.7384,0.1254,0.871,0.9831,-0.4051,0.7439,0.3134,0.986,-0.2908,-0.7669,-0.1659,-0.3785,0.8536,0.7972,-0.3409,-0.2964,0.923,1.014,0.9445,0.5205,-0.0044,-0.1572,-1.0056,1.0849,0.3716,-0.296,0.5167,0.3701,-0.3585,1.2502,0.0858,-0.3587,0.1483,-0.1118,-0.0639,-0.9025,-0.5923,-0.9186,0.8396,0.096,0.5534,0.8115,-0.6578,0.3019,0.7552,0.4529,0.0746,0.1149,0.7658,1.3207,0.3271,-0.281,0.3348,0.276,-1.3085,-0.2104,0.2587,0.1235,-0.4875,0.9769,0.8622,1.1095,-0.1674,0.4688,0.0483,0.6114],"b1":[-0.2327,0.4578,0,-0.6398,0.1788,0,0.2524,-0.2125,0.2579,-0.113],"w2":[0.6279,-0.8923,0.7577,-0.0732,-0.6173,2,0.4675,0.9113,-0.3862,0.2225,-0.2426,-0.8699,-0.5306,-0.4338,0.7047,0.978,0.9272,-0.316,-0.6531,0.2012,-0.4938,-0.6326,1.0444,-0.3519,0.0748,1.0858,-0.4141,0.382,0.3816,0.6806,0.0623,-0.6746,0.223,0.9978,0.5687,0.1148,-0.3126,-0.7937,0.984,0.1994,-0.5022,-0.8552,0.4242,-0.0193,-0.236,0.3826,0.6151,-0.4623,-0.6209,0.3623,0.7546,-0.7118,1.3238,0.7892,-1.3068,0.7546,0.3791,0.9184,-0.1957,-0.1146,-0.5661,-1.2445,-0.3957,-0.9198,-0.9924,-0.3306,0.4442,1.3501,0.7308,-0.6096,0.4099,-0.6136,0.2488,-0.7485,0.2279,0.1785,0.4909,0.709,0.6343,0.7619],"b2":[-0.6704,0,-0.398,-0.3317,0.0792,0.0259,0.3242,0.1518],"w3":[-1.0225,0.7161,-0.9665,0.7583,0.443,-0.8959,0.9716,-1.1022,0.2826,0.2354,-0.5181,0.8747,0.6743,-0.6556,-0.3281,-0.6658,1.0169,0.0237,0.3999,0.5663,0.0173,-1.1152,-0.349,-0.1214,0.6987,-0.5269,-0.0018,0.9698,-0.8648,0.5068,0.2255,0.0475],"b3":[-0.1169,0.2259,0.1069,-0.031]},"kills":1,"foodEaten":19,"children":4,"reproductionCooldown":0},{"x":1270.55,"y":190.29,"angle":-2.406,"energy":137,"age":5309,"generation":21,"parentId":8887,"bodyGenes":{"size":14,"maxSpeed":3.5,"turnSpeed":0.07576167583956327,"hue":63.10298469501896,"saturation":59.673796269123756,"aggression":0.9303527211711626,"efficiency":1.5},"brain":{"w1":[0.5849,-0.2074,-0.9015,0.0557,0.0952,-0.6156,-0.1195,0.9785,-0.4262,0.7078,0.5607,-0.5619,-1.2318,-0.1501,-1.2187,0.5402,-0.8806,-0.7727,-0.5271,-0.4605,-0.8431,0.2591,0.6228,0.5644,-0.0045,0.5723,-0.5197,-0.8577,-1.1658,0.2541,0.0307,-0.5329,0.2453,0.6202,0.0056,1.0937,-0.3062,1.1562,-0.1489,-0.0444,1.1197,0.5957,-0.9298,0.901,1.118,0.7218,-1.081,-0.5845,0.1396,-0.0805,-0.194,0.0861,-0.0762,0.5353,-0.2724,-0.6033,-0.4514,1.2446,-0.7842,0.124,-1.1882,-0.255,-0.9498,0.2983,1.2568,1.1376,1.0253,1.0585,-1.0242,0.4689,0.271,0.6442,-0.8852,-0.4286,-0.0411,-0.5728,0.0125,-0.596,-0.9526,-0.0811,-0.8813,-1.8362,0.5268,-1.2974,-1.0264,0.0372,1.0259,0.4286,1.0238,-0.7195,-0.0132,-0.2759,-0.7709,0.251,-0.44,0.0894,1.0695,0.9941,-0.9502,0.9931,0.3134,0.9084,0.0829,-0.6571,-0.8254,-0.1191,0.5911,1.2933,-0.7302,0.146,0.666,0.9751,1.0858,0.6937,0.474,-0.32,-1.0056,1.0849,0.5715,-0.4559,0.8142,0.5649,0.0053,1.6192,0.0177,-0.7007,-0.5193,0.5879,-0.2817,-1.1315,-0.5923,-0.7486,0.612,0.5681,0.5534,0.3323,-0.6326,-0.2061,0.6399,0.5332,-0.52,0.0998,0.7506,1.8157,0.4708,0.202,-0.6895,0.8825,-1.2132,-0.2104,0.6497,-0.12,-1.5664,1.0782,1.3304,1.2143,-0.1674,0.904,-0.3497,0.4203],"b1":[-0.2777,0.493,0.483,0,0.6492,0.1163,0.351,0,0.0489,0.1096],"w2":[0.3932,-0.6203,1.615,0.2526,-0.3205,1.1387,0.4856,0.7369,-0.6732,0.2104,0.1532,-1.597,-0.9514,-1.0433,0.6396,0.0069,1.1486,-0.5697,-0.6172,0.4874,-0.5702,-0.7345,1.2742,-0.5992,0.162,1.1778,-0.6126,0.195,0.7905,0.7406,0.6498,-0.1681,0.6261,1.2339,0.6941,0.3697,0.5466,-0.6456,0.7574,-0.2238,-0.1163,-0.867,0.4641,0.3945,0.1413,0.1866,0.8553,-0.3341,-0.7598,0.6319,0.5854,-0.4695,1.2216,0.5493,-1.3104,1.0474,0.9604,0.8572,-0.5748,-0.0556,0.0395,-1.8145,-0.5081,-0.5473,-1.5201,-0.4384,0.5429,1.6637,0.7308,-0.2227,1.1229,-0.6136,0.6523,-0.2942,0.2279,0.3436,0.8368,0.3682,1.6165,0.7619],"b2":[-0.6704,0.0841,-0.196,-0.6952,0.2538,-1.0233,0.3242,-0.5197],"w3":[-1.3359,0.7101,-1.146,0.6861,0.0171,-0.1551,2,-0.8655,0.1485,0.112,-1.0339,0.9466,1.018,-0.5813,0.0773,-0.5328,1.3201,0.2852,1.0277,0.5833,-0.7017,-0.6665,-0.2619,-0.2464,0.8012,-0.3791,-0.2924,0.6,-0.7761,0.9491,0.6431,0.0482],"b3":[-0.1252,1.1215,0.2966,-0.3904]},"kills":1,"foodEaten":27,"children":6,"reproductionCooldown":0},{"x":1241.23,"y":440.42,"angle":7.224,"energy":33.8,"age":5166,"generation":20,"parentId":9202,"bodyGenes":{"size":14,"maxSpeed":3.5,"turnSpeed":0.12686711947296408,"hue":134.9964211318778,"saturation":78.74812085108448,"aggression":0.3209829279443947,"efficiency":1.5},"brain":{"w1":[-0.3038,-0.5778,-0.8816,-0.1532,-0.0579,-0.3686,0.0939,0.5825,-0.7038,0.8301,1.4697,-0.5852,-1.2529,-0.0418,-1.5421,0.5234,-1.0002,-0.5441,-0.3199,-0.9431,-0.8431,-0.3176,0.746,0.8835,0.4413,1.211,-0.5197,-0.5879,-1.3526,0.9486,0.5869,-0.5329,-0.7047,0.5903,-0.0301,0.4782,-0.3062,0.6437,-0.1489,-0.0456,1.0903,0.7189,-0.4749,0.7433,0.2302,0.2346,-1.4805,-0.5845,0.3366,0.0193,0.0755,0.3559,-0.6062,-0.0765,-0.16,0.0637,-0.4514,0.6338,-0.6996,0.124,-1.0892,-0.3053,-0.7758,-0.0899,1.0014,0.5699,0.6689,1.4916,-1.5331,0.1555,0.5431,0.3929,-0.8852,-0.4286,-0.1118,-0.3097,0.5738,-0.4477,-1.0601,0.0878,-0.9907,-1.5885,0.3586,-0.3661,-1.1908,-0.311,0.3126,0.8509,1.1914,-0.5324,-0.7845,-0.6693,-1.5153,0.6066,-0.44,0.4619,0.6605,0.6088,-1.1451,0.8622,0.3134,0.8775,-0.1697,-0.7177,-0.189,-0.6483,0.8536,1.0606,-0.7698,-0.2897,0.3729,1.014,0.8293,0.9396,-0.0865,0.2035,-1.1118,1.2127,0.5146,-0.611,0.7742,0.7223,-0.2448,1.1243,-0.0877,-1.0076,-0.773,-0.2206,-0.7575,-0.9025,-0.7682,-1.7258,0.8896,0.4192,0.7082,0.3737,-1.1366,0.4749,0.973,0.5332,-0.2047,0.0759,0.8563,0.8823,0.351,-0.3001,-0.959,0.8101,-1.1493,-0.386,0.6331,-0.2985,-1.0869,0.8046,0.8622,1.0312,-0.1674,0.4201,-0.4568,0.2046],"b1":[-0.0155,0.4781,0.483,0.1951,0.5799,0.2872,0.1239,-0.2156,-0.013,0.5025],"w2":[0.1689,-0.9261,1.4475,0.0149,-0.7913,0.2678,0.4339,1.3492,-0.6186,0.2623,0.1532,-1.2067,-0.4868,-0.8111,0.6333,-0.057,1.3618,-0.7059,-0.43,0.4165,0.1837,-0.3944,0.6364,-0.3798,0.856,1.6959,-1.0946,-0.3544,0.6459,0.7406,0.0623,-0.3497,1.2635,0.9978,0.4717,1.1597,-0.1342,-0.4843,1.6708,-0.2473,0.3135,-0.8552,0.9324,-0.3997,0.2508,0.2734,0.6151,-0.5005,-0.3621,0.7395,0.7687,-0.6279,0.9784,0.6262,-1.3068,1.005,1.122,1.0126,-0.1957,0.9782,0.0395,-1.8145,-0.3957,-0.795,-1.449,-0.204,0.3069,1.3977,0.9718,-0.7639,0.7245,-0.73,0.9766,-0.7485,0.4285,0.4079,1.3257,0.5154,0.6343,0.592],"b2":[-0.6704,0.4587,-0.6081,-0.5944,-0.0317,0.0259,0.3698,-0.568],"w3":[-1.4342,0.839,-1.2352,0.6861,0.1968,-0.8959,1.5198,-0.9333,0.3754,0.2354,-0.5313,1.2507,0.5339,-0.0702,0.1287,-0.6658,0.5561,-0.168,0.5256,0.264,-0.322,-0.9325,0.135,-0.1677,0.6515,-0.6275,0.3387,1.0659,-0.8209,0.362,0.0398,0.7618],"b3":[-0.1369,1.2092,0.3559,0.0845]},"kills":1,"foodEaten":19,"children":4,"reproductionCooldown":0},{"x":287.19,"y":786.45,"angle":-356.971,"energy":82.5,"age":5164,"generation":17,"parentId":9407,"bodyGenes":{"size":14,"maxSpeed":3.5,"turnSpeed":0.11853210533552692,"hue":134.9964211318778,"saturation":60.600742880494316,"aggression":0.5922017688881562,"efficiency":1.5},"brain":{"w1":[-0.4833,-0.6124,-0.1325,0.0557,0.0717,-0.2647,-0.027,0.2979,-0.7048,0.6653,0.9116,-1.0424,-1.1353,0.6615,-0.796,0.1944,-0.7015,-0.4235,-0.8864,-0.555,-0.7764,-0.5012,0.6228,-0.3689,0.3237,1.0479,-0.5197,-0.1571,-1.3131,0.0913,0.393,-0.551,-0.2915,0.5055,-0.3667,0.4919,-1.0519,0.6339,-0.1542,-0.2837,1.3964,0.9761,-0.9536,0.7788,0.145,0.8072,-0.6571,-0.274,0.1396,0.3933,-0.2804,0.2007,-0.6062,0.3191,-0.9472,-0.4099,-0.2122,0.7523,-0.1402,-0.1347,-1.1557,-0.482,-0.8834,-0.0722,1.1208,1.1512,0.8268,1.0809,-1.3437,0.22,0.6146,0.915,-1.0846,-0.0996,0.1279,-0.3097,-0.2516,-0.437,-1.3642,0.014,-0.9907,-1.9623,0.5628,-0.7195,-0.8316,-0.5063,0.5945,0.268,0.8746,-0.4178,-0.2642,0.4783,-0.999,-0.0288,-0.1863,0.4619,0.871,0.7374,-1.1675,0.611,0.1569,1.1082,0.3172,-0.7406,-0.1391,0.0263,0.7561,1.3456,-0.0644,-0.2802,0.916,1.014,0.9445,0.4412,0.2917,0.1059,-1.0056,1.0849,0.0309,-0.4534,-0.1735,0.3701,-0.3236,1.1914,-0.0853,-0.2087,0.0018,0.2976,-0.4985,-0.9873,-0.5923,-1.0968,0.7731,0.4192,-0.5219,1.3198,-0.8475,0.2581,0.442,-0.254,-0.4691,-0.2172,1.229,1.4942,-0.192,-0.5649,-0.2118,0.8825,-1.4208,-0.2104,0.4133,-0.2985,-0.5179,0.7903,0.615,0.83,-0.5381,0.6859,-0.0288,0.402],"b1":[-0.1938,0.5697,0,-0.747,0.1788,-0.0107,0.2524,-0.0958,-0.0754,-0.113],"w2":[0.1343,-0.9261,0.5838,-0.0012,-0.8507,1.0406,0.2089,0.7369,-0.4828,0.2004,0.2285,-0.9802,-0.3986,-0.2786,-0.2433,1.0199,-0.0448,-0.0313,-0.6531,0.2012,-0.4938,-0.6326,1.0444,-0.6103,0.0748,1.0858,-0.5856,0.382,0.1672,0.6177,0.0623,-0.7259,0.3555,1.1947,0.3879,0.0127,-0.1469,-0.6187,0.6116,-0.0335,-0.228,-1.0127,0.4512,-0.0193,0.1413,-0.3967,0.6758,0.0079,-0.6209,0.0128,0.6531,-0.5481,1.3238,0.7892,-1.6348,0.7288,0.3791,0.8572,-0.1957,0.3431,-0.5661,-1.2445,-0.4146,-0.9198,-0.9831,-0.3306,0.3678,1.2689,0.9658,-0.8587,0.8374,-0.4314,0.2427,-0.2996,0.2301,0.1086,0.6683,0.1484,0.6343,0.6685],"b2":[-0.6704,0.1457,-0.2018,-0.5765,0.0792,0.0259,0.3401,0.0692],"w3":[-0.7915,0.1555,-0.7217,0.3626,0.0811,-0.8959,0.9716,-1.1022,0.2826,0.2354,-0.5181,0.7706,0.9651,-0.5715,0.6178,-0.19,1.0751,0.0237,0.577,0.4418,0.3515,-1.0634,-0.4225,-0.1214,0.6987,-0.4396,0.0243,1.2409,-0.8929,0.5068,0.2255,-0.346],"b3":[0.0057,0.1112,0.4325,0.0845]},"kills":0,"foodEaten":23,"children":3,"reproductionCooldown":0},{"x":856.28,"y":329.55,"angle":-329.348,"energy":140.1,"age":4841,"generation":21,"parentId":9668,"bodyGenes":{"size":14,"maxSpeed":3.5,"turnSpeed":0.1078984193773784,"hue":91.30868647109332,"saturation":59.673796269123756,"aggression":0.7201400123115937,"efficiency":1.5},"brain":{"w1":[0.2484,-0.2657,-0.7146,0.0557,-0.3165,-0.2647,-0.2853,0.6351,-0.3592,1.1716,0.496,-0.5619,-1.5112,-0.0947,-1.4678,0.6023,-0.8806,-1.3232,-0.3537,-0.2765,-0.8431,0.2649,0.3891,0.7393,0.3889,0.6615,-0.6205,-0.476,-1.49,0.0281,-0.3164,-0.2104,-0.2386,0.6202,-0.2708,0.3167,-0.188,1.1562,-0.1467,-0.1143,1.1197,0.4667,-0.9298,0.4715,0.8892,0.5011,-1.081,-0.7132,-0.283,-0.1444,-0.9278,-0.0037,-0.597,0.5353,-0.2724,-0.4337,-0.4514,0.6543,-0.5891,0.124,-1.0319,-0.3955,-0.9498,-0.0899,1.108,1.5439,1.5872,1.0585,-1.0242,0.2125,0.6146,0.5311,-1.0321,-0.6946,-0.2923,-0.248,0.0125,-0.476,-0.9266,-0.0811,-0.6984,-2,0.8443,-1.4332,-1.0264,0.017,0.48,1.0491,0.8274,-0.6755,-0.2547,0.0763,-0.4794,0.3005,-0.44,0.0681,0.871,0.9762,-1.1245,0.9931,0.3134,0.6799,0.0829,-0.613,-0.5926,-0.3785,1.017,1.0266,-0.3918,0.4706,0.7924,0.9751,0.8293,0.6937,0.5978,-0.32,-1.4272,1.0849,0.4597,-0.3095,0.5142,0.5649,0.2126,1.888,-0.0877,-0.7007,-0.5193,-0.3283,-0.2817,-0.8812,-0.5923,-0.7486,0.5135,0.9416,0.5534,0.2286,-0.6326,0.8908,0.5206,0.5332,-0.3528,0.0998,1.2917,1.3986,0.1776,0.0494,-0.6895,0.6139,-1.027,-0.2071,0.7868,0.0678,-2,0.99,1.3304,1.2056,-0.2908,0.1867,-0.162,0.4203],"b1":[-0.6203,0.493,0.483,0,0.5338,0.1163,0.1955,0,0.0489,0.0837],"w2":[0.2543,-0.959,1.4859,-0.0732,-0.3952,1.0406,0.0937,0.7369,-0.4828,0.514,0.1532,-1.264,-0.183,-0.6163,0.6333,-0.4108,1.0654,-0.6835,-0.4576,0.4455,-0.7805,-0.8042,0.6912,-0.3274,0.2375,1.0858,-0.5856,0.382,0.7905,0.7406,0.5407,-0.3753,0.4233,0.6298,0.6941,0.2811,0.5466,-0.6456,0.7574,-0.1925,0.115,-0.8552,0.4641,0.2778,0.1413,-0.0936,0.4143,-0.3341,-1.1343,0.4185,0.916,-0.4695,1.3238,0.622,-1.3068,0.9336,0.9604,0.8572,-0.1957,-0.0556,0.0395,-1.7443,-0.3957,-1.0811,-1.4067,0.5067,0.7033,1.6637,0.7308,-0.4546,1.331,-0.6136,1.1435,-1.0788,0.1627,0.4353,0.9166,0.4325,1.4063,0.9321],"b2":[-0.5513,0.9666,-0.196,-0.593,0.2815,-1.091,0.3242,-0.0208],"w3":[-1.4342,0.7101,-0.9894,0.6861,0.0653,-0.358,1.7578,-0.8813,0.1485,0.0561,-1.1853,0.7988,0.917,-0.6993,0.0773,-0.756,1.1116,0.2852,0.9852,0.821,-0.018,-1.1212,0.2576,0.2426,0.8012,-0.5269,0.125,0.5924,-0.8648,0.8084,0.4623,0.2783],"b3":[-0.1169,1.3313,0.2126,-0.9652]},"kills":0,"foodEaten":27,"children":5,"reproductionCooldown":0},{"x":604.12,"y":718.26,"angle":8.664,"energy":97.7,"age":4797,"generation":18,"parentId":9635,"bodyGenes":{"size":14,"maxSpeed":2.961088133571027,"turnSpeed":0.1078984193773784,"hue":34.71116396373037,"saturation":63.20030377695518,"aggression":1,"efficiency":1.5},"brain":{"w1":[-0.1136,-0.2657,-0.8395,0.0557,-0.0001,-0.5157,0.2755,0.8892,-0.7038,0.8301,0.9116,-0.5619,-1.2318,0.334,-0.7974,0.8656,-0.8806,-1.0218,-0.4587,-0.8283,-0.7482,-0.3176,0.6305,0.3929,0.4114,1.0602,-0.9378,-0.476,-1.276,0.027,0.2139,-0.0245,-0.4224,0.6528,-0.1342,0.2423,-0.1315,0.6339,-0.1769,-0.2756,0.9314,0.705,-1.099,0.4971,0.8892,0.3882,-1.2073,-0.5062,0.0796,-0.1444,-0.1546,-0.0037,-0.6062,0.5353,-0.3164,-0.7703,-0.4514,0.9231,-0.4134,0.0522,-1.0319,0.0246,-0.9498,-0.2454,1.6671,1.0692,1.133,1.0585,-0.8831,0.013,0.859,0.6593,-0.8852,-0.0991,-0.5772,-0.3097,-0.0492,-0.234,-1.0601,-0.1535,-0.9907,-1.4413,0.5608,-0.8297,-0.9386,-0.1218,0.34,0.8112,0.8746,-0.5825,-0.3158,-0.5836,-0.7154,0.5349,-0.6441,0.2942,0.871,1.1948,-0.9502,0.5282,0.3134,1.0107,0.0829,-0.7177,0.0819,-0.5074,1.098,1.0695,-0.5488,-0.3424,0.666,1.014,0.8293,0.1754,0.837,-0.1572,-0.9295,0.8689,0.1803,-0.3198,0.4452,0.7366,-0.1676,1.8892,-0.0877,-0.5638,-0.4813,-0.1118,-0.497,-1.095,-0.5923,-1.1338,0.9927,0.4192,0.5534,0.3323,-0.6326,0.4749,1.2166,0.6044,-0.2047,-0.1946,0.6322,1.4583,0.5795,0.25,-0.7855,1.3002,-1.6987,-0.2104,0.0355,-0.2985,-0.587,1.0857,0.4733,1.2143,-0.1717,0.4688,-0.5285,0.337],"b1":[0.0253,0.493,0.2984,0,0.1788,0,0.2524,-0.1725,0.2178,0.0311],"w2":[0.5539,-0.9261,1.2136,0.1402,-1.0069,1.0406,0.2101,0.7369,-0.7722,0.3406,0.1708,-0.4539,-0.5306,-0.2363,0.6333,0.0069,1.2863,-0.5697,-0.3315,0.1267,-0.4938,-0.6326,0.4185,-0.3519,0.4145,0.8724,-0.5856,-0.1139,0.6459,0.7406,0.565,0.1558,0.3555,0.9978,0.8706,0.1148,0.2072,-0.8416,1.19,-0.1925,-0.1163,-0.8552,0.9095,0.4182,-0.0821,0.2103,0.6114,-0.4722,-0.4175,0.5041,0.4599,-0.754,1.6224,0.6729,-1.3068,0.8358,0.9604,0.8572,-0.1957,0.515,-0.0464,-1.8145,-0.1574,-0.7252,-1.3164,0.0575,-0.0578,1.5672,0.5925,-0.6096,1.1824,-0.7986,0.1224,-0.768,-0.2909,0.6844,0.892,0.1242,0.6343,1.0687],"b2":[-0.6564,0,-0.604,-0.5944,0.6706,0.0259,0.1499,-0.2144],"w3":[-1.5571,0.608,-0.9665,0.9998,0.0653,-0.8959,2,-0.5845,0.4205,0.2354,-0.4752,0.9319,0.611,-0.5297,0.0773,-0.6658,0.7505,0.2228,0.46,0.4489,-0.769,-1.1148,0.0878,0.3431,0.7593,-0.6298,0.0782,0.8831,-0.9461,0.832,-0.0807,0.4091],"b3":[0.102,1.4771,0.1225,0.0845]},"kills":0,"foodEaten":19,"children":2,"reproductionCooldown":0},{"x":497.76,"y":474.94,"angle":-8.292,"energy":100.5,"age":4782,"generation":17,"parentId":9432,"bodyGenes":{"size":14,"maxSpeed":3.5,"turnSpeed":0.12817256650692313,"hue":344.0099486934072,"saturation":40,"aggression":0.6842557466490253,"efficiency":1.5},"brain":{"w1":[-0.3779,-0.2657,-0.6775,0.0557,0.1948,-0.2647,0.1187,1.2124,-0.6085,0.2109,0.9323,-0.6188,-1.0397,0.2999,-1.1348,0.3383,-0.9229,-1.0731,-0.3537,-0.7096,-0.4893,-0.6383,0.6228,0.3289,0.3479,1.0754,-0.9427,-0.2105,-1.3241,0.3458,0.4049,-0.6391,-0.6793,0.6775,-0.1306,0.5697,-0.2145,0.6339,-0.1489,-0.4298,1.0256,0.4706,-1.1296,0.8171,0.9414,-0.063,-0.9585,-0.0805,-0.2659,0.3933,-0.4508,-0.0937,-0.5002,0.2724,-0.7369,-0.2984,-0.1249,0.8665,-0.5778,0.0039,-1.0319,-0.4941,-0.8834,-0.0722,0.0938,0.4252,0.9229,0.727,-1.061,0.4953,1.102,0.6442,-0.8852,-0.1425,-0.7077,-0.3097,-0.3195,-0.1493,-1.2584,-0.3576,-0.9907,-1.5338,0.5628,-0.7195,-1.0264,-0.1218,0.3643,0.9308,0.7404,-0.7113,-1.1119,-0.318,-0.486,0.0993,-0.6212,0.08,0.871,0.463,-1.2002,0.8934,0.0682,0.986,0.5564,-0.7669,-0.5117,0.16,1.1255,1.4125,-0.3489,-0.2964,0.3247,0.069,0.9445,0.2743,0.2917,-0.0128,-0.7431,1.4986,0.345,-0.319,0.6712,0.2494,0.096,0.9505,0.9513,-0.3608,-0.8903,-0.0161,-0.57,-0.8318,-0.7678,-1.2164,0.1963,0.1608,0.5534,0.5398,-0.6578,0.5469,0.6426,0.6105,-0.2647,0.1149,0.9361,1.391,0.0014,-1.3349,-0.2118,0.4579,-1.0689,-0.2104,0.0683,-0.2985,-0.7182,-0.1601,1.2721,0.3023,0.0412,0.231,-0.1272,0.393],"b1":[-0.1938,0.6846,0,-0.6398,0.0798,0,0.8249,-0.2125,-0.0273,-0.113],"w2":[0.1614,-0.9206,0.8975,0.0221,-0.8653,1.0406,0.6015,1.1868,-0.3834,0.576,0.135,-0.1961,-0.4415,0.0179,0.8125,0.7477,0.7509,-0.3537,-0.5877,0.0277,-0.8731,-0.6326,1.0444,-0.3519,-0.1998,0.8008,-0.5856,0.382,0.1762,0.5942,-0.0491,-0.6868,-0.0565,0.62,0.6875,0.1148,0.0563,-0.6239,0.6228,-0.1117,0.0161,-0.8505,0.5248,0.4357,0.1413,0.2351,0.6151,-0.1778,-0.6209,0.3623,1.4103,-0.7118,1.3238,0.7892,-1.3068,0.8358,-0.3345,0.8572,-0.1957,0.4335,-0.5661,-1.2445,-1.0139,-1.1262,-0.9606,-0.7544,0.4019,1.5742,0.7308,-0.6096,0.8374,-0.6136,0.2427,-0.7485,0.2279,0.4353,0.4909,-0.0465,0.3249,0.6395],"b2":[-0.8691,-0.1251,0.1233,-0.7436,0.0792,0.0259,0.3242,-0.2797],"w3":[-1.5522,0.608,-1.0843,0.0463,0.0421,-1.0407,0.9716,-1.1022,0.2826,0.15,-0.1879,0.37,0.5506,-0.7434,-0.0747,-0.1773,0.5297,0.0237,0.1336,0.7338,0.0206,-1.0634,-0.7814,0.188,0.6987,-0.7273,0.0243,0.7707,-0.8648,0.0921,0.71,0.0475],"b3":[-0.1169,1.126,-0.1174,0.0845]},"kills":0,"foodEaten":16,"children":1,"reproductionCooldown":0},{"x":1319.13,"y":202.36,"angle":-0.583,"energy":29.8,"age":4384,"generation":13,"parentId":8240,"bodyGenes":{"size":14,"maxSpeed":3.5,"turnSpeed":0.1078984193773784,"hue":134.9964211318778,"saturation":60.600742880494316,"aggression":0.7201400123115937,"efficiency":1.5},"brain":{"w1":[-0.6292,-0.2657,-0.5988,0.0557,-0.0001,-0.2647,-0.2185,0.8892,-0.8547,0.6653,0.9556,-0.0117,-1.2398,0.1618,-0.796,0.4093,-0.8806,-0.5439,-0.6058,-0.555,-0.8431,-0.5012,0.6228,0.3289,0.2341,1.4996,-0.5197,-0.5708,-0.9661,0.0053,0.7107,-0.9712,-0.2915,0.6775,-0.1306,0.6132,-0.6428,1.2337,-0.026,-0.2837,0.9803,0.4706,-1.1675,0.4715,0.8892,0.2215,-0.9368,-0.274,0.0167,0.6142,-0.1128,0.2007,-0.9384,0.4488,-0.7474,-0.4099,-0.1249,0.8665,-0.3796,-0.1347,-1.0319,-0.1627,-0.8834,-0.0722,0.7981,0.7751,0.6689,1.0585,-0.8961,0.1555,0.6146,0.6442,-0.8852,-0.4286,-0.4106,-0.3097,-0.4008,-0.4001,-1.0601,-0.3721,-0.9907,-1.9669,0.5628,-0.7195,-0.5557,-0.2643,0.3643,0.8509,0.6575,-0.3123,-0.273,-0.6405,-0.7154,-0.13,-0.4595,0.4619,0.871,0.9831,-1.0032,0.7045,0.3134,0.5948,0.1123,-0.457,-0.1659,-0.3785,1.1703,1.5569,-0.2568,-0.258,0.923,1.014,0.9397,0.881,0.2917,-0.1572,-1.0056,1.0849,0.3716,-0.4534,0.544,0.0923,0.0053,1.2502,0.1387,-0.6196,-0.4813,-0.1118,-0.57,-0.9025,-0.5923,-1.0968,0.7731,0.4192,0.5534,0.7179,-0.6578,0.5551,0.7707,0.4529,-0.2047,0.5518,0.7658,1.3207,0.6672,-0.281,-0.2118,0.8825,-1.2092,-0.2104,0.2587,-0.2985,-0.5811,0.8059,0.8622,1.1095,-0.1674,0.1091,-0.305,0.402],"b1":[-0.1938,0.3186,0.0608,-0.6398,0.1641,0.2508,0.2524,-0.4688,0.4943,0.3713],"w2":[0.1343,-0.9261,0.7577,0.3007,-0.6173,1.0406,0.4675,0.5157,-0.4828,-0.0592,0.1532,-0.9389,-0.5306,-0.4338,0.3707,0.7103,0.5919,-0.4749,-0.6531,0.2012,-0.4938,-0.6326,1.0799,-0.3519,0.0748,1.4754,-0.5856,0.5393,0.3816,0.6806,0.0623,-1.0068,0.3787,0.9978,0.5687,-0.0084,-0.0153,-0.641,1.0054,-0.2062,-0.228,-0.8552,0.4242,-0.0193,0.1413,0.2351,0.6151,-0.4722,-0.6209,0.3623,0.7546,-0.7118,1.3238,0.7892,-1.3068,0.5386,0.1927,0.8572,-0.1957,0.3431,-0.4872,-1.2445,-0.3957,-0.9198,-0.9924,-0.5031,0.4108,1.3501,0.7308,-0.6096,0.8374,-0.6136,0.2427,-0.7485,0.2279,0.5102,0.4909,0.4325,0.6343,0.9646],"b2":[-0.6208,-0.1126,-0.0293,-0.883,0.0161,0.0259,0.3242,0.0191],"w3":[-1.155,0.608,-0.9665,0.6861,0.0811,-0.8959,0.9716,-1.1022,0.2826,0.2354,-0.5181,0.8747,0.6743,-0.5629,-0.0747,-0.6658,0.8389,0.5907,0.4152,0.4199,0.0173,-0.9494,-0.349,-0.1214,0.6987,-0.5269,0.0243,0.9698,-0.8648,0.5068,0.2255,0.0475],"b3":[0.1541,0.5314,0.1069,0.0845]},"kills":0,"foodEaten":10,"children":0,"reproductionCooldown":0},{"x":1295.49,"y":861.13,"angle":0.45,"energy":132.9,"age":3922,"generation":25,"parentId":10294,"bodyGenes":{"size":14,"maxSpeed":3.5,"turnSpeed":0.08323968220819913,"hue":110.45271721314748,"saturation":71.13173186259183,"aggression":0.7201400123115937,"efficiency":1.5},"brain":{"w1":[0.2927,-0.2657,-0.5345,-0.1306,-0.0984,-0.2647,-0.2853,0.8898,-0.7038,0.8946,-0.0679,-0.5033,-0.7071,-0.2632,-1.2535,0.6585,-1.0326,-0.9665,-0.3537,-0.5578,-0.8431,-0.1552,0.4079,0.205,0.3312,-0.2428,-0.9669,-0.1872,-1.772,0.3189,0.0992,-0.2392,-0.2386,0.4655,-0.3666,0.6751,-0.3062,0.8162,-0.2788,-0.1143,0.8539,0.5396,-0.6314,0.072,1.2107,0.324,-0.7829,-0.727,-0.4236,-0.1444,-0.1546,0.2393,-0.597,0.5353,-0.2724,-0.4337,-0.6759,0.9722,-0.5455,-0.3732,-0.9763,-0.2364,-0.6766,-0.0899,1.108,1.6225,0.8453,0.8924,-1.0242,0.3258,0.656,0.6442,-0.9967,-0.4506,-0.2923,-0.2957,-0.5031,-1.1849,-1.3874,-0.0839,-1.0642,-2,1.649,-1.4332,-1.1385,-0.0257,0.3814,1.0491,0.841,-1.313,-0.3229,-0.318,-0.7709,0.5172,-0.7113,0.2215,0.871,0.9762,-0.8991,0.9931,0.0277,0.8775,0.0829,-0.7018,-0.4994,-0.6087,0.9133,1.5331,-0.924,0.2151,0.1996,1.107,0.8293,-0.1268,0.4194,-0.3131,-1.2675,0.9686,0.8565,0.0564,0.544,0.4175,0.0053,1.6894,0.1907,0.0736,-0.5565,-0.023,-0.2203,-0.9025,-0.6669,-1.0353,0.6992,0.6393,0.5534,0.3323,-0.8518,0.5131,0.4176,0.5332,-0.3528,0.066,0.4511,1.8157,0.5102,0.0494,-0.9397,0.5481,-1.2132,-0.521,0.2305,-0.1033,-1.8032,1.2462,1.3304,1.4233,-0.0909,0.3574,-0.3497,-0.4689],"b1":[-0.1158,0.4302,0.3122,-0.1562,0.7912,-0.0688,0.0753,-0.1314,-0.3876,-0.204],"w2":[0.511,-0.6203,1.39,-0.0732,-1.2072,1.1742,-0.4045,0.8557,-0.5476,0.1983,-0.5555,-1.264,-1.2517,-0.6567,0.6333,0.0069,1.3357,-0.2361,-0.4158,0.5156,-0.76,-0.8966,0.7978,-0.2602,0.3915,1.3777,-0.1043,0.3174,0.6575,0.7406,0.9536,-0.3753,0.7444,1.1869,1.2861,0.5546,0.4868,-1.3976,1.0072,-0.1925,-0.2503,-0.8552,0.9211,-0.8223,0.3773,0.227,0.6151,-0.5975,-0.7598,0.6319,0.1379,-0.469,0.8867,0.5319,-1.6144,1.0263,0.823,0.9602,0.0093,-0.0556,0.0395,-1.8145,-0.1907,-0.6533,-1.768,0.0077,0.0496,1.6055,0.8893,0.0732,1.2433,-0.7093,0.5045,-0.9986,0.2279,0.3188,0.8511,0.508,1.4063,1.0272],"b2":[-0.5211,0.1987,-0.0449,-0.4697,0.3962,-0.4943,0.1736,0.2758],"w3":[-1.6512,0.7101,-1.146,1.0889,-0.4996,-0.358,2,-0.699,-0.2194,0.3515,-1.0339,0.7988,0.915,-0.6993,0.1862,-0.6658,0.5254,0.4238,0.8876,0.5343,0.1398,-0.4719,0.0528,0.2426,0.4547,-0.1683,-0.2039,1.1731,-1.0663,1.1449,0.2226,0.3974],"b3":[0.2762,1.3313,0.1167,-0.6328]},"kills":1,"foodEaten":21,"children":5,"reproductionCooldown":0},{"x":943.39,"y":388.31,"angle":-216.852,"energy":64.8,"age":3749,"generation":17,"parentId":9838,"bodyGenes":{"size":14,"maxSpeed":3.369329301287452,"turnSpeed":0.12122814589052305,"hue":344.9811623807687,"saturation":70.56763507813017,"aggression":0.7201400123115937,"efficiency":1.5},"brain":{"w1":[-0.3121,-0.3197,-0.6648,0.0557,-0.0001,-0.0615,0.4132,0.8534,-0.6085,0.7225,0.8722,-0.5619,-1.1433,0.2181,-0.9484,0.5435,-1.207,-0.4193,-0.3263,-0.5682,-0.9831,-0.1878,0.3851,0.3289,0.3479,1.0602,-0.5197,-0.18,-1.1884,0.0913,0.4968,0.3406,-0.3871,0.6174,0.009,0.3968,-0.7902,0.6339,-0.1489,-0.0378,1.5388,-0.0122,-0.3473,0.4793,0.8892,-0.4505,-1.2239,-0.274,0.1396,0.3994,-0.2804,0.5487,-0.8756,0.8201,-0.5962,-0.7363,-0.559,0.8665,-0.471,-0.2783,-1.0346,0.1153,-1.0972,-0.0052,0.7981,0.7751,0.904,1.0585,-1.1235,0.1125,0.9315,0.6442,-0.6914,-0.0681,0.5223,-0.3097,0.5277,-0.4001,-1.2007,-0.3721,-1.4266,-1.5885,0.5628,-0.7444,-1.0264,0.171,0.9351,0.3842,1.1661,-0.3775,-0.3158,-0.318,0.741,-0.0288,-0.5039,0.1674,0.3571,0.9079,-0.6005,1.3768,0.4113,0.986,0.0829,-0.7509,0.1016,-0.2376,1.0898,1.2819,-0.1494,-0.3255,0.2948,1.014,0.5474,0.5205,0.2936,0.1581,-0.9178,1.1714,0.5483,-0.5606,1.3165,0.3701,0.4448,0.8265,0.2335,-0.5638,-0.5266,-0.0115,-0.3377,-1.1011,-0.2728,-1.2173,1.8332,0.4192,0.8087,0.4042,-0.6578,-0.2143,0.8459,0.736,-0.2047,0.2325,0.7714,0.866,0.2093,-0.0223,-0.8005,1.0181,-1.2092,0.031,0.2587,-0.3254,-0.4296,0.8059,0.6803,1.6849,0.6812,0.5018,-0.2947,0.402],"b1":[0,0.3186,0.1289,0,0.2612,-0.2989,0.1164,-0.4319,0.0489,0.0974],"w2":[0.5942,-1.1266,0.7577,-0.0732,-1.0636,1.0406,0.7015,0.4894,-0.5329,0.2497,0.1532,-0.8961,-0.1852,0.1381,0.5233,0.2562,0.7801,-0.5339,-0.7956,0.4357,-0.6991,-0.6326,1.0444,-0.1887,0.3988,1.0858,-0.5137,0.382,0.3816,2,0.2739,-0.5619,0.403,0.9149,0.116,0.2387,0.4101,-0.6219,0.9478,-0.1925,0.0689,-1.2413,0.74,-0.0193,0.1413,0.2351,0.6151,-0.2287,-0.6209,0.1007,0.5854,-0.7118,1.3541,0.8427,-1.159,0.7996,0.986,1.0011,-0.3151,0.3431,-0.5661,-1.2445,-0.5346,-0.7396,-1.319,0.2352,0.0991,1.2149,0.6326,-0.6096,1.5287,-0.6136,0.5031,-1.0502,0.5349,0.6408,0.4909,0.5092,1.0091,1.4369],"b2":[-0.986,0,-0.9799,-0.1163,0.7822,0.0259,0.3111,0.0191],"w3":[-0.8408,0.9443,-0.9665,0.5021,0.5552,-0.8959,1.1642,-0.4497,0.2826,0.0004,-0.1072,1.4471,0.6743,-0.184,0.1206,-0.2272,1.2267,-0.2535,-0.0574,0.3277,-0.322,-1.0634,-0.349,-0.1214,0.9995,-0.236,0.4945,0.8364,-0.8648,-0.2261,-0.1438,0.6583],"b3":[-0.1169,0.6505,0.4643,0.4166]},"kills":0,"foodEaten":23,"children":6,"reproductionCooldown":0},{"x":1171.87,"y":829.52,"angle":89.603,"energy":13.7,"age":3567,"generation":20,"parentId":10470,"bodyGenes":{"size":14,"maxSpeed":3.5,"turnSpeed":0.14921422170707976,"hue":300.0689682852616,"saturation":78.74812085108448,"aggression":0,"efficiency":1.5},"brain":{"w1":[-0.6642,-0.7905,-0.8816,-0.1532,-0.0001,-0.3686,-0.1151,0.6362,-0.7038,0.8301,1.4158,-0.5852,-1.2318,0.3979,-1.318,0.2371,-0.8806,-0.5441,-0.3537,-0.9431,-0.8431,-0.3784,0.6228,0.8835,0.3479,1.1745,-0.4527,-0.2727,-1.3388,0.577,0.4968,-0.2932,-0.281,0.3479,-0.0301,0.4782,-0.3062,0.6437,-0.1489,-0.0456,1.1118,0.7189,-0.8248,0.7278,0.2302,0.2346,-1.4068,-0.5845,0.1527,0.0193,-0.2957,-0.0037,-0.2829,0.6774,-0.4114,-0.4337,-0.4514,0.6338,-0.6996,0.124,-1.0892,-0.3053,-0.7758,-0.0899,0.8378,1.0252,0.6689,1.4916,-1.0861,0.1555,0.5431,0.3929,-1.3152,-0.4286,-0.1118,-0.3097,0.0125,-0.596,-1.0601,0.1469,-0.5274,-1.6781,0.3586,-0.8297,-1.1426,-0.311,0.3729,0.8509,0.8746,-0.5825,-0.7845,-0.7941,-1.4076,0.6066,-0.44,0.4767,0.871,0.6088,-1.1451,0.7131,0.3134,0.8775,-0.3223,-0.7177,-0.2531,-0.6483,0.7407,1.0606,-0.3409,-0.2964,0.3729,1.014,0.8293,0.4172,0.1912,0.2035,-0.7521,1.2127,0.4771,-0.611,1.1277,0.7223,0.0053,1.427,-0.0877,-1.0076,-0.773,-0.2206,-0.1436,-0.5475,-0.943,-1.1532,0.8896,0.4192,0.5534,0.5991,-1.033,0.4749,0.973,0.3818,-0.2047,0.0759,1.2824,1.3207,0.351,-0.0505,-0.959,0.8101,-1.5442,-0.386,0.6331,-0.2985,-1.0869,0.8046,0.8622,1.2143,-0.1674,0.2762,-0.5236,0.2046],"b1":[-0.0155,0.4781,0.483,0.1951,0.5799,0.5206,0.0079,-0.0927,0.0489,0.2182],"w2":[0.1689,-1.52,1.4475,0.0149,-1.0911,0.6319,0.4786,0.9335,-0.6186,0.2811,0.3363,-0.7594,-0.4868,-0.9096,0.5432,-0.0849,1.3618,-1.0856,-0.5554,0.774,0.2945,-0.6326,0.2299,-0.3798,0.2028,1.5838,-0.9963,-0.3042,0.6459,0.7406,0.0623,-0.3753,1.2635,0.9978,0.4717,1.1572,-0.1342,-0.4843,1.19,-0.1925,0.3135,-0.8552,0.9324,-0.3441,0.1413,0.2849,0.4808,-0.5005,-0.3621,0.7395,0.7687,-0.7118,0.9784,0.6262,-1.1512,0.8663,1.122,1.2072,-0.1957,0.7303,0.0395,-1.8145,-0.3957,-0.795,-1.449,-0.079,0.3069,1.8339,0.7308,-0.7639,0.8533,-0.6136,0.6041,-0.7485,0.4285,0.5205,1.32,0.6909,0.6343,0.826],"b2":[-0.6704,0.4587,-0.6081,-0.5944,0.254,0.0259,0.5358,-0.568],"w3":[-1.4342,0.839,-0.9665,0.6861,0.4835,-0.8959,1.5198,-0.699,0.4499,0.2354,-0.4096,1.2507,0.3347,-0.0702,0.0773,-0.8789,0.5561,0.2852,0.5256,0.4199,-0.322,-0.9325,0.3825,-0.1677,1.0497,-0.8736,0.3387,0.8044,-0.8209,0.362,0.0595,-0.1669],"b3":[-0.1369,0.9034,0.3559,0.0845]},"kills":0,"foodEaten":8,"children":0,"reproductionCooldown":0},{"x":296.87,"y":120.29,"angle":-6.593,"energy":103,"age":3557,"generation":20,"parentId":8918,"bodyGenes":{"size":14,"maxSpeed":3.5,"turnSpeed":0.1078984193773784,"hue":324.0557089822729,"saturation":83.3854985127252,"aggression":0.2848590222600095,"efficiency":1.5},"brain":{"w1":[-0.0602,-0.588,-0.8166,0.0557,-0.0001,-0.2915,0.6118,0.6362,-0.7038,0.8301,1.2198,-0.5619,-1.2318,0.3979,-1.4673,0.3885,-0.9422,-0.5441,-0.3537,-0.9426,-0.8544,-0.3176,0.6359,0.3289,0.3735,1.0602,-0.7011,-0.7034,-1.1658,0.6677,0.4968,-0.5329,-0.281,0.6775,0.1847,0.4782,-0.1863,0.8988,-0.1489,0.0193,0.9623,0.7189,-0.8142,0.4715,0.7917,0.2472,-1.0786,-0.4736,0.1527,0.0193,0.2251,-0.0037,-0.6062,-0.1129,-0.4114,-0.4337,-0.6599,0.8665,-0.6996,0.124,-0.8892,-0.3053,-0.8249,0.094,0.9702,1.1219,0.6689,1.4916,-1.3386,0.0805,0.5925,0.0064,-0.6819,-0.4286,-0.1118,-0.9733,0.2308,-0.596,-1.3451,0.5233,-0.9907,-1.5885,-0.1482,-1.0304,-1.1426,-0.3865,0.5945,0.4073,0.942,-1.0595,-0.3011,-0.6693,-1.808,0.2427,-0.44,0.4619,0.5754,0.4425,-1.1451,0.9455,0.2447,1.1688,-0.385,-0.7177,-0.2247,-0.6483,1.1013,1.0606,-0.3409,-0.8122,0.4558,1.273,0.8293,0.6922,0.2075,-0.1725,-0.9301,1.3169,0.4771,-1.1285,0.4198,0.9093,0.1575,1.6083,-0.0168,-0.5638,-0.6734,-0.5413,-0.57,-0.9025,-1.0026,-1.1532,0.7142,0.6026,0.472,0.3323,-0.6326,0.4749,1.0931,0.6983,-0.5592,-0.0642,0.7506,1.7412,0.5795,-0.0505,-0.5407,0.8825,-1.1468,-0.2104,0.2365,-0.5268,-1.0527,0.9682,0.9762,1.2143,-0.3546,0.6965,-0.4497,0.337],"b1":[-0.0069,0.4781,0.483,0.0849,0.5799,0,0.0079,-0.0701,0.0489,-0.1713],"w2":[0.1689,-0.9261,1.8806,-0.2133,-1.1593,0.5758,0.3261,0.7369,-0.4291,-0.0525,0.269,-0.7747,-0.3803,-0.2965,0.6281,-0.306,1.4551,-0.5902,-0.459,0.4745,-0.4836,-0.5658,0.2299,-0.911,0.4885,1.3851,-0.5856,0.448,0.6459,0.7406,0.0623,-0.3753,1.1276,0.9978,0.7895,1.0932,-0.1342,-0.4843,1.19,-0.1925,0.3135,-0.8552,0.9205,-0.5142,0.1413,0.0824,0.7376,-0.4722,-0.3621,0.7897,1.1569,-0.7118,1.3238,0.6262,-1.3068,0.8358,1.122,1.0126,-0.1957,0.7303,-0.398,-1.7458,-0.3957,-0.2941,-1.449,-0.079,0.6598,1.639,0.7663,-0.7639,1.542,-0.6136,0.1224,-0.9558,0.2081,0.4353,0.7125,0.4325,0.6429,0.7619],"b2":[-0.6704,0.0191,-0.2018,0.0067,0.254,0.2563,0.5358,-0.568],"w3":[-1.4342,1.285,-0.9665,0.609,0.1968,-0.5461,1.2486,-0.699,0.5642,0.186,-0.204,0.5778,0.3347,-0.2294,-0.1357,-0.7673,0.9962,0.2852,0.2394,0.4199,-0.4364,-0.9325,0.4827,-0.0388,0.8012,-0.9051,0.3387,0.9378,-0.8209,0.0596,-0.0379,1.1656],"b3":[-0.1369,1.2092,0.589,0.0845]},"kills":0,"foodEaten":14,"children":2,"reproductionCooldown":0},{"x":1042.11,"y":410.36,"angle":-117.069,"energy":92,"age":3548,"generation":18,"parentId":10623,"bodyGenes":{"size":14,"maxSpeed":3.369329301287452,"turnSpeed":0.12122814589052305,"hue":344.9811623807687,"saturation":64.1776252508621,"aggression":0.7201400123115937,"efficiency":1.5},"brain":{"w1":[-0.3121,-0.3197,-0.6648,0.0557,-0.0001,-0.0615,0.4132,0.8534,-0.6085,0.6163,0.8722,-0.5619,-0.7359,0.2181,-0.9484,0.5435,-1.3085,-0.4193,-0.3263,-0.5682,-0.9831,0.1115,0.3851,0.3289,0.3479,1.0602,-0.5197,-0.18,-1.1884,0.0913,0.4968,0.3406,-0.3871,1.062,0.009,0.3968,-0.7902,0.5375,-0.1947,-0.0378,1.5388,-0.0122,-0.3473,0.4793,0.8892,-0.4505,-1.2239,-0.274,0.1396,0.3994,-0.2804,0.5487,-0.8756,0.8201,-0.5962,-0.7363,-0.559,0.8665,-0.4136,-0.2783,-1.0346,0.1153,-1.0972,-0.0052,0.8045,1.0299,0.904,1.0585,-1.1235,0.1125,0.9315,0.759,-0.6914,-0.3376,0.5223,-0.3097,0.5277,-0.4001,-1.2007,-0.3721,-1.4266,-1.5885,0.6902,-0.7444,-1.0264,0.171,0.9351,0.3842,1.1661,-0.3775,-0.3158,-0.318,0.741,-0.2821,-0.5039,0.1674,0.3571,0.9079,-0.6005,1.3768,0.6898,0.986,-0.0824,-0.7509,0.1016,-0.2376,1.0898,1.2819,-0.1494,-0.3255,0.2948,1.014,0.5474,0.7901,0.2936,0.1581,-0.9178,1.1714,0.367,-0.5606,1.3165,0.3701,0.4448,0.6726,0.2335,-0.5638,-0.5266,-0.0115,-0.3377,-1.1011,-0.2728,-1.2173,1.8332,0.4192,0.8087,0.4042,-0.6578,-0.2143,0.8459,0.736,-0.2047,0.2325,0.7714,0.866,0.2093,-0.0223,-0.8005,1.0181,-1.2092,0.031,0.2587,-0.3254,-0.4296,0.4623,0.6803,1.6849,0.6812,0.5018,-0.1608,0.402],"b1":[0,0.3186,0.1289,0,0.2612,-0.2989,0.1164,-0.4319,0.0489,0.7191],"w2":[0.5942,-1.1266,1.0556,-0.0732,-1.0636,1.0406,0.7015,0.4894,-0.3879,0.2497,0.1532,-1.18,-0.1852,0.1381,0.5233,0.2562,0.7801,-0.5339,-0.7956,0.4357,-0.6991,-0.6326,1.0444,-0.1841,0.3988,0.8217,-0.7689,0.382,0.3816,2,0.2739,-0.5167,0.403,0.9149,0.116,0.2387,0.4101,-0.4691,0.9478,-0.1925,0.0689,-1.2413,0.74,-0.0193,-0.2904,0.6311,0.6151,-0.5303,-0.6209,0.1007,0.5854,-0.7118,1.3541,0.8427,-1.159,0.7996,0.986,1.0011,-0.3151,0.3431,-0.5661,-1.2445,-0.5346,-0.7396,-1.319,0.5963,0.0991,1.2149,0.6326,-0.8073,1.5287,-0.6136,0.246,-1.0502,-0.0078,0.6408,0.4909,0.5092,1.0091,1.1231],"b2":[-0.986,0,-0.9799,-0.1163,0.7822,0.0259,0.3111,0.0191],"w3":[-0.8408,1.0797,-0.9665,0.705,0.5552,-0.8959,1.1642,-0.4497,0.2826,0.0004,-0.5093,1.4471,0.6743,-0.184,0.1206,-0.2272,1.2267,-0.2535,-0.0574,0.3277,-0.3901,-1.0634,-0.349,-0.1214,0.9995,-0.1398,0.4945,0.8364,-0.8648,-0.4961,-0.5669,0.6583],"b3":[-0.1169,0.6505,0.4643,0.4166]},"kills":1,"foodEaten":11,"children":2,"reproductionCooldown":0},{"x":1550.19,"y":717.5,"angle":6.373,"energy":68.3,"age":3448,"generation":18,"parentId":10623,"bodyGenes":{"size":14,"maxSpeed":3.5,"turnSpeed":0.12122814589052305,"hue":344.9811623807687,"saturation":70.56763507813017,"aggression":0.7201400123115937,"efficiency":1.5},"brain":{"w1":[-0.039,-0.3197,-0.6648,0.0557,-0.0001,-0.0615,0.4132,0.8029,-0.6085,0.7225,0.8722,-0.5619,-1.1433,0.2181,-1.1769,0.5435,-1.207,-0.4193,-0.3263,-0.5682,-1.2816,-0.1878,0.3851,0.3289,0.3479,1.0602,-0.5197,-0.18,-1.1884,0.0913,0.4968,0.3406,-0.3871,0.6174,0.009,0.3968,-0.7902,0.6339,-0.1489,-0.0378,1.1086,-0.0122,-0.3473,0.4793,0.8892,-0.4505,-1.2239,-0.274,0.1396,0.3994,-0.2804,0.5487,-0.8756,0.8201,-0.5962,-0.7363,-0.559,0.8665,-0.4676,-0.2783,-0.8431,0.1153,-1.0972,-0.0052,0.995,1.0364,0.904,1.0585,-1.1235,0.1125,0.9315,0.6442,-0.6914,-0.0681,0.5223,-0.3097,0.5277,-0.8619,-1.4081,-0.3721,-1.4266,-1.5885,0.5628,-0.7444,-1.0264,0.171,0.9351,0.3842,1.1661,-0.4884,-0.2744,-0.318,0.741,-0.0288,-0.5039,0.1674,0.3571,0.9079,-0.6005,1.3768,0.4113,0.986,0.0829,-0.7509,0.1016,-0.2188,1.0898,1.2819,-0.1494,-0.3255,0.2948,1.014,0.8574,0.5205,0.2936,0.1581,-0.9178,1.1714,0.5483,-0.5606,1.3224,0.3701,0.4448,0.8265,0.2335,-0.5638,-0.5266,-0.0115,-0.0161,-1.1011,-0.2728,-1.2173,1.8332,0.4192,0.8742,0.4042,-0.6578,0.035,0.8459,0.736,-0.2047,0.2325,0.7714,0.866,0.2093,-0.0223,-0.8005,1.0181,-1.2092,0.031,0.2587,-0.3254,-0.4296,0.8059,0.6803,1.6849,0.6812,0.5018,-0.2947,0.402],"b1":[0,0.3186,0.1289,0,0.0814,-0.2989,0.2433,-0.3831,0.0489,0.0974],"w2":[0.5942,-1.1266,0.7577,-0.0732,-1.0636,1.0406,0.7015,0.4894,-0.5328,0.2497,0.1532,-0.8961,-0.1852,0.1381,1.0239,0.2562,0.7801,-0.5339,-0.7956,0.4357,-0.3804,-0.6326,1.0444,-0.1887,0.3988,1.0858,-0.5137,0.382,0.3816,2,0.2739,-0.5619,0.403,0.9149,0.116,0.2387,0.4625,-0.475,0.9478,-0.1925,0.0689,-1.2413,0.74,0.0104,0.1413,0.2351,0.6151,-0.2287,-0.6209,0.2841,0.5854,-0.7118,1.3541,0.8427,-1.159,0.9567,0.986,1.0011,-0.3151,0.2743,-0.5661,-1.2445,-0.5346,-0.7396,-1.319,0.2352,0.0586,1.2149,0.6326,-0.6096,1.4851,-0.7347,0.9802,-0.7617,0.5349,0.6908,0.4909,0.5092,1.0091,1.0357],"b2":[-0.986,0,-0.9799,-0.1163,0.7822,0.0259,0.3111,0.1936],"w3":[-0.8408,0.9443,-0.9665,0.5021,0.1859,-0.8959,1.1642,-0.4497,0.2826,0.0004,-0.1072,1.4471,0.6743,-0.184,0.1206,-0.2272,1.2267,-0.2535,-0.0574,0.3277,-0.2326,-1.0634,-0.349,-0.1214,0.9995,-0.3977,0.4945,0.8364,-0.8648,-0.2261,-0.1438,0.6583],"b3":[-0.1169,0.6505,0.4643,0.4166]},"kills":0,"foodEaten":9,"children":0,"reproductionCooldown":0},{"x":86.08,"y":771.56,"angle":1.538,"energy":30.6,"age":3352,"generation":16,"parentId":6367,"bodyGenes":{"size":14,"maxSpeed":3.5,"turnSpeed":0.1078984193773784,"hue":344.0099486934072,"saturation":40,"aggression":0.6842557466490253,"efficiency":1.5},"brain":{"w1":[-0.3779,0.0702,-0.6775,0.0557,0.1948,-0.2647,0.1823,1.4562,-0.6085,0.5748,0.9116,-0.6188,-1.0397,0.2999,-1.1348,0.3383,-1.1238,-0.9056,-0.3537,-0.7096,-0.4893,-0.5012,0.6228,0.3289,0.3479,1.0754,-0.9128,-0.2105,-1.3241,0.3458,0.4049,-0.8855,-0.2915,0.6775,-0.1306,0.0472,-0.2145,0.2502,-0.1489,-0.1351,1.0256,0.4706,-0.7567,0.8171,0.9414,-0.171,-0.9585,-0.0805,-0.2659,0.3933,-0.4508,-0.0937,-0.5002,0.2724,-0.7369,-0.2984,-0.1249,0.8665,-0.5778,0.1117,-1.0319,-0.4941,-0.8834,-0.0722,0.0938,0.4252,0.6689,1.0585,-1.3276,0.4953,1.102,0.6442,-0.4188,-0.1425,-0.7077,-0.3097,-0.3195,-0.1003,-0.8558,-0.3721,-0.9907,-1.5338,0.5628,-0.7195,-1.0264,-0.1218,0.3643,0.9308,1.0213,-0.7113,-0.5206,-0.318,-0.7154,0.0993,-0.5443,0.4619,0.871,0.463,-1.0032,0.7045,0.0682,0.9326,0.5564,-0.7669,-0.6232,0.0717,1.1255,1.4125,-0.3409,-0.2964,0.6003,0.069,0.9445,0.376,0.2917,-0.0128,-0.6123,1.4986,0.345,-0.319,0.544,0.3701,0.0053,1.1848,0.9513,-0.3608,-0.8903,-0.1118,-0.57,-0.8318,-0.6917,-1.2164,0.1963,0.4192,0.5534,0.5398,-0.6578,0.7315,0.6426,0.6105,-0.2647,0.1149,1.2833,1.3207,0.0014,-0.8828,-0.2118,0.393,-1.0689,-0.2104,0.0683,-0.2985,-0.7182,-0.0325,0.7364,0.7024,0.0412,0.231,-0.1272,0.402],"b1":[-0.1938,0.6846,0,-0.6398,-0.2012,0,0.5546,-0.2125,0.1158,-0.113],"w2":[0.1614,-0.9206,0.8975,-0.1105,-1.1737,1.0406,0.4675,1.4457,-0.3459,0.576,0.135,-0.2809,-0.4415,-0.1327,0.5087,0.7477,0.7509,-0.3537,-0.546,0.0277,-0.8409,-0.6326,1.0444,-0.3519,-0.0427,1.0842,-0.5856,0.382,-0.1675,0.5942,0.0623,-0.6868,-0.0565,0.8418,0.38,0.1148,-0.0113,-0.6239,0.984,-0.1117,0.0161,-0.8505,0.5248,0.4357,0.1413,0.2351,0.6151,-0.1778,-0.6209,0.3623,1.4103,-0.7118,0.9005,0.7892,-1.3215,0.8358,-0.1933,0.8572,-0.1957,0.4335,-0.5661,-1.2445,-0.6319,-1.1262,-0.9606,-0.3306,0.4019,1.5742,0.7308,-0.6096,0.8374,-0.6136,0.2427,-0.7485,-0.1018,0.2748,0.4909,0.4325,0.3249,0.6175],"b2":[-0.9317,0,0.1233,-0.7436,0.0792,0.0259,0.3242,0.0191],"w3":[-1.5522,0.608,-1.0843,0.1196,0.0811,-1.3558,0.9716,-1.0247,-0.1186,0.15,-0.4689,0.37,0.8981,-0.7434,-0.0747,-0.3811,1.0169,0.0237,0.5146,0.7338,0.0206,-1.0634,-0.7814,0.2656,0.6987,-0.6791,0.0243,0.7707,-0.8659,0.5068,0.2255,0.0475],"b3":[-0.1169,1.126,-0.1174,0.0845]},"kills":0,"foodEaten":13,"children":2,"reproductionCooldown":0},{"x":417.43,"y":831.69,"angle":-263.277,"energy":106.7,"age":3247,"generation":17,"parentId":9207,"bodyGenes":{"size":14,"maxSpeed":3.3291251821913836,"turnSpeed":0.118780164843731,"hue":34.59886787320255,"saturation":60.600742880494316,"aggression":1,"efficiency":1.5},"brain":{"w1":[-0.4833,-0.8346,-0.8852,0.0557,0.0717,-0.2647,-0.027,0.511,-0.8883,0.6653,0.9116,-0.6269,-1.2318,0.6615,-0.796,0.1944,-0.821,-0.4235,-0.8864,-0.555,-0.7764,-0.5012,0.6228,-0.4035,0.0818,1.1377,-0.2105,-0.1571,-1.3131,0.0913,0.5703,-0.8137,-0.2915,0.5055,-0.4458,0.438,-0.7359,0.6209,-0.2985,-0.2837,1.0068,0.4706,-0.9536,0.7788,0.145,0.5083,-0.6571,-0.274,0.1396,0.4482,-0.0434,0.2007,-0.6062,0.4317,-0.9472,-0.4099,-0.2122,0.7523,-0.4134,-0.1347,-0.5998,-0.557,-0.8834,-0.0722,0.7981,0.9009,0.6689,1.0585,-1.6569,0.2905,0.6146,0.915,-0.8685,-0.0996,0.1279,-0.3097,-0.2648,-0.7818,-1.3642,0.0607,-0.8493,-1.9588,0.6087,-0.7195,-0.8316,-0.1218,0.5542,0.706,0.8746,-0.3542,-0.0468,0.4067,-0.9247,-0.1051,-0.0053,0.4619,0.871,0.8486,-1.544,0.611,0.1121,1.1082,0.0207,-0.7406,-0.1391,0.1668,0.7561,1.3456,-0.0644,-0.2802,0.916,1.2884,0.9445,0.797,0.306,0.1952,-1.3877,1.0849,0.3716,-0.4534,-0.1735,0.3701,-0.3236,1.2502,-0.0853,-0.3608,0.3017,-0.3144,-0.57,-0.9873,-0.5923,-1.0968,0.7731,0.4192,-0.1824,1.3198,-0.2369,-0.0124,0.442,0.1653,-0.4691,0.1149,1.229,1.4942,0.2093,-0.5649,-0.2118,0.6986,-1.4087,-0.2104,0.7981,-0.1365,-0.5179,0.7903,0.8493,1.1095,-0.3576,0.6859,-0.3106,0.402],"b1":[0.3133,0.5697,0,-0.6398,0.2602,0,0.665,-0.2125,0.0489,-0.113],"w2":[0.1343,-0.9261,0.5838,-0.0732,-0.7393,1.0964,0.1213,0.7369,-0.2275,0.4946,0.2285,-0.8746,-0.3685,-0.6573,-0.1689,0.7103,-0.0448,-0.0313,-0.6531,0.2012,-0.5216,-0.6326,1.0444,-0.3204,0.0748,1.0858,-0.5856,0.382,0.1672,0.6056,0.0623,-0.9964,0.5444,1.1521,0.5687,0.0127,-0.0094,-0.6187,1.2248,-0.1117,0.1624,-1.0127,0.8484,-0.1459,0.1413,0.2351,0.6583,0.1581,-0.907,0.0128,0.9721,-0.2245,1.3238,0.7892,-1.0568,0.7288,0.3791,1.0455,-0.1957,0.3431,-0.5661,-1.2445,-0.2363,-0.9322,-0.9924,-0.3306,0.7353,1.5679,0.9658,-0.3229,0.8374,-0.4314,0.2427,-0.2996,0.6519,0.1086,0.6683,0.4325,0.6343,0.6685],"b2":[-0.6704,0.3154,-0.2018,-0.7427,0.1483,0.0259,0.6157,0.0692],"w3":[-0.6052,0.0097,-0.7217,1.0534,0.4259,-0.8959,1.066,-1.1022,0.9051,0.2354,-0.5181,0.8445,0.9651,-0.5715,0.4434,0.0594,0.8434,0.0237,0.577,0.39,0.3515,-1.0634,0.0464,-0.1214,0.6987,-0.738,0.2906,1.2409,-0.8342,0.5068,0.2255,-0.346],"b3":[-0.2765,0.1171,0.2665,0.0845]},"kills":0,"foodEaten":21,"children":6,"reproductionCooldown":0},{"x":1500.13,"y":727.22,"angle":-208.169,"energy":118,"age":3229,"generation":21,"parentId":10867,"bodyGenes":{"size":14,"maxSpeed":3.405862109944464,"turnSpeed":0.1078984193773784,"hue":91.30868647109332,"saturation":69.89684367249558,"aggression":0.9303527211711626,"efficiency":1.5},"brain":{"w1":[0.6894,0.0905,-0.9015,-0.0627,0.0904,-0.6156,-0.2853,0.9785,-0.7038,0.8946,0.496,-0.2655,-1.2318,-0.0947,-1.2535,0.5435,-0.8806,-1.3405,-0.6313,-0.076,-0.7132,0.017,0.6408,0.5644,0.3889,0.5723,-0.7816,-0.552,-1.1658,0.3189,-0.3558,-0.5329,0.2453,0.6202,0.0056,0.24,-0.3062,1.1562,-0.0155,-0.4409,1.4197,0.711,-0.9298,1.1502,0.8892,0.5249,-1.3843,-0.3702,0.1396,-0.1444,-0.4363,-0.0037,-0.0494,0.9032,0.2866,-0.6033,-0.4514,1.0972,-0.7842,0.124,-1.1691,-0.3465,-0.7803,0.004,1.376,1.1376,0.4944,1.3771,-1.0242,0.4689,0.3642,0.6442,-0.8852,-0.4286,-0.3147,-1.0175,0.0125,-0.596,-1.0915,-0.0811,-0.9945,-2,0.6828,-1.4332,-0.7598,0.0372,0.9382,1.2533,1.1995,-0.7195,0.0461,-0.318,-0.4571,0.251,-0.44,0.2215,0.871,1.1587,-1.1883,1.4058,0.3134,0.8793,0.0829,-0.613,-0.4994,-0.1191,0.6784,1.0266,-0.7131,0.146,0.666,1.2069,0.8293,0.6937,0.474,-0.2086,-1.0056,1.0849,0.4597,-0.3095,0.8142,0.5649,0.0053,1.5782,-0.2618,-0.2892,-0.5193,0.0508,-0.2817,-0.9025,-0.5923,-0.9258,0.6992,0.3842,0.564,0.3323,-0.6326,0.4749,0.6399,0.5332,-0.3643,0.0998,0.7252,1.8157,0.1776,0.108,-0.6895,0.8825,-1.2132,-0.2104,0.6497,-0.12,-1.3095,1.0782,1.3304,1.2143,-0.1674,0.904,-0.5388,0.4203],"b1":[-0.2761,0.6425,0.6198,0,1.1196,0.1163,0.519,0,0.0489,-0.1515],"w2":[-0.1356,-0.6203,1.7529,-0.0732,-0.6165,1.0406,0.1495,1.0341,-0.222,0.0459,0.1532,-1.6342,-0.8407,-1.0433,0.2114,0.0069,1.6527,-0.5697,-0.6916,0.3218,-0.5477,-0.7345,0.6912,-0.4179,0.162,1.0858,-0.5856,0.382,0.2399,0.7326,0.5407,-0.269,0.4233,1.5759,0.6941,0.2811,0.5466,-0.6456,0.7574,-0.2238,-0.1163,-0.867,0.5016,-0.1122,0.1413,0.2849,0.6151,-0.3341,-0.7598,0.6355,0.5854,-0.6193,1.3238,0.5493,-1.3068,1.0474,0.5601,0.8572,-0.5748,-0.0556,0.0395,-1.878,-0.3957,-0.6169,-1.4067,-0.3097,0.4019,1.5994,0.7308,-0.4546,1.2433,-0.6136,0.7994,-0.8924,0.2279,0.4353,0.9166,0.3682,1.4063,0.741],"b2":[-0.8803,0.7132,-0.196,-0.6952,0.1268,-0.9053,0.3242,-0.5294],"w3":[-1.0383,0.3986,-1.146,0.6861,-0.4861,-0.358,1.7578,-0.9021,0.1485,0.0656,-1.0339,0.7988,0.8894,-0.8907,0.0773,-0.6218,1.1116,0.2852,0.9852,0.5343,-0.1867,-0.6665,0.0528,0.4427,0.4115,-0.2489,0.125,0.3227,-1.0137,0.9491,0.034,0.3771],"b3":[-0.1252,1.1714,0.1086,-0.364]},"kills":0,"foodEaten":17,"children":3,"reproductionCooldown":0},{"x":1143.79,"y":482.49,"angle":-217.219,"energy":97.7,"age":3221,"generation":22,"parentId":10040,"bodyGenes":{"size":14,"maxSpeed":3.5,"turnSpeed":0.1078984193773784,"hue":91.30868647109332,"saturation":59.673796269123756,"aggression":0.7201400123115937,"efficiency":1.5},"brain":{"w1":[0.6006,-0.2657,-0.7146,0.0557,-0.3165,-0.2647,-0.2853,0.5281,-0.456,1.5631,0.496,-0.5619,-1.5112,-0.0947,-1.4678,0.6023,-0.7446,-1.3232,-0.3537,-0.2765,-0.8431,0.2649,0.3891,0.9444,0.3889,0.6615,-0.6205,-0.476,-1.49,-0.1322,-0.3164,-0.2104,-0.2386,0.6202,-0.2708,0.3167,-0.188,1.1562,-0.1467,-0.1143,1.1197,0.4667,-0.9298,0.4715,0.7912,0.5011,-1.081,-0.7132,-0.283,-0.1444,-0.9278,-0.0037,-0.597,0.539,-0.2724,-0.4337,-0.4514,0.6287,-0.6475,0.124,-1.0319,-0.8778,-0.9498,-0.0899,1.108,1.5439,1.5872,1.0379,-1.0242,0.2125,0.6146,0.5311,-1.0321,-0.6946,-0.1407,-0.248,0.0125,-0.476,-0.9266,-0.0811,-0.6984,-2,0.8443,-1.4332,-1.0264,0.017,0.48,1.0491,0.8274,-0.6755,-0.2547,0.193,-0.4794,0.3005,-0.44,0.0681,0.7584,0.9762,-1.1245,0.9931,0.3134,0.6799,0.0829,0.0336,-0.5926,-0.6798,1.017,1.0266,-0.3918,0.4706,0.7924,0.9751,0.8293,0.6937,0.5978,-0.32,-1.4272,1.0849,0.4597,-0.3095,0.5142,0.5649,0.2126,1.888,-0.0877,-0.7007,-0.5193,-0.3283,-0.2817,-0.8812,-0.5923,-0.9634,0.5135,1.0288,0.5534,0.0383,-0.6326,0.8908,0.5206,0.5332,-0.3528,0.0998,1.2917,1.4311,0.1776,0.0494,-0.6895,0.6139,-1.027,-0.2071,0.7868,0.0678,-2,0.99,1.3304,1.2056,-0.2908,0.1867,-0.162,0.5178],"b1":[-0.6203,0.493,0.189,0,0.5338,0.1163,0.1955,-0.1537,0.0489,0.0837],"w2":[0.2543,-0.959,1.4859,-0.0732,-0.3952,1.0406,0.0937,0.7369,-0.4828,0.514,0.1532,-1.264,-0.183,-0.6163,0.2684,-0.4108,1.0654,-0.6349,-0.4576,0.4455,-0.78,-0.8042,0.6912,-0.3274,0.2375,1.0858,-0.5856,0.382,0.7905,0.7406,0.5407,-0.3753,0.4233,0.536,0.6941,-0.2512,0.5466,-0.6456,0.8598,-0.1925,0.115,-0.8552,0.4641,0.2778,0.1413,-0.0936,0.4143,-0.3341,-1.1343,0.4185,0.916,-0.4695,1.3238,0.622,-1.3068,0.9336,0.9604,0.8572,-0.1957,-0.0556,0.0395,-1.7443,-0.3957,-1.1691,-1.4067,0.5067,0.7033,1.6637,0.7308,-0.4546,1.331,-0.6136,1.1435,-1.0788,0.1627,0.4353,0.9166,0.4325,1.4063,0.9321],"b2":[-0.5513,0.9666,-0.196,-0.593,0.2815,-1.091,0.3242,-0.0208],"w3":[-1.4342,0.7101,-0.9894,1.1194,0.0653,-0.358,1.7578,-0.8813,0.1485,0.0561,-1.1853,0.7988,0.917,-0.6993,0.0773,-0.756,0.8162,0.2852,0.9852,0.821,-0.018,-1.1212,0.2576,0.2426,0.8012,-0.5269,0.0291,0.5924,-0.8648,0.8084,0.4623,0.2783],"b3":[-0.1169,1.3313,0.7544,-0.4943]},"kills":0,"foodEaten":14,"children":2,"reproductionCooldown":87},{"x":1180.26,"y":576.86,"angle":24.716,"energy":85.5,"age":3179,"generation":20,"parentId":10396,"bodyGenes":{"size":14,"maxSpeed":2.7979501609452346,"turnSpeed":0.0878937319088861,"hue":91.30868647109332,"saturation":59.673796269123756,"aggression":0.7201400123115937,"efficiency":1.5},"brain":{"w1":[0.4195,-0.2657,-0.9086,0.0557,-0.0001,-0.2777,-0.5212,1.0388,-0.7038,0.49,0.1297,-0.5619,-1.2318,-0.226,-1.0609,0.5435,-1.3902,-0.574,-0.3537,-0.555,-0.8431,-0.2814,0.6228,0.5761,0.8552,0.5288,-0.5197,-0.476,-1.194,0.3189,0.051,-0.5329,-0.3212,0.6775,0.4047,0.0943,-0.3062,0.6008,-0.1489,0.1634,1.4029,0.5396,-0.9298,0.5508,0.8892,0.346,-1.3594,-0.5845,-0.233,-0.1444,-0.0978,-0.1697,-0.6062,0.9868,-0.2724,-0.4337,-0.4514,0.8665,-0.1388,0.5646,-0.9764,-0.3223,-0.9498,0.0886,1.108,1.3957,0.6689,1.0585,-0.8605,0.2125,0.6146,0.6442,-0.8024,-0.2055,-0.6131,-0.0032,0.0125,-0.596,-0.8821,-0.298,-0.7323,-1.7149,0.5268,-1.014,-1.0264,0.0372,0.4541,0.7215,0.8746,-0.5378,0.1032,-0.2872,-0.686,0.251,-0.4889,0.3829,0.2372,0.9762,-1.0123,0.9758,0.2626,1.0114,0.0215,-1.0279,-0.4549,-0.3785,0.5911,0.35,-0.3409,0.0328,1.0306,1.5493,0.8293,0.1754,0.6219,0.7706,-1.0056,1.0849,0.4597,-0.4418,0.5054,0.4895,-0.5285,1.0786,-0.4189,-0.7007,-0.4813,1.0815,0.1093,-1.1109,-0.4152,-1.582,0.7837,0.483,0.5282,0.3323,-0.6326,0.4653,1.0278,0.6653,-0.3528,0.0998,0.7506,1.8157,0.2532,-0.4334,-0.6895,1.0064,-1.2092,-0.2104,0.5328,-0.2985,-0.8526,0.99,1.3304,1.3311,-0.1674,0.4688,-0.4568,0.5667],"b1":[0.1652,0.3705,0.1396,0,0.8773,0.1163,0.3222,0,-0.0947,0.0579],"w2":[0.4271,-0.6022,1.1817,-0.6332,-0.3356,1.5374,0.2101,0.7369,-0.0933,0.3406,0.1532,-1.264,-0.7172,-1.0617,0.9977,0.0069,1.1807,-0.5697,-0.4576,0.0694,-0.2819,-0.7345,0.7249,-0.409,-0.0782,1.0858,-0.5642,0.382,1.26,1.1514,0.5407,0.1553,0.4105,0.4385,1.2017,0.0636,0.0996,-0.3567,0.5804,-0.2927,0.0103,-0.8552,0.9324,0.0312,0.3113,0.024,0.5771,-0.4722,-0.0359,0.6319,0.5854,-1.0261,1.3786,1.0933,-1.4917,1.0474,0.753,1.0544,-0.099,0.3431,0.0395,-1.5293,-0.3957,-0.3087,-1.1903,-0.1558,0.4019,1.4401,0.7308,-0.6096,0.7919,-0.2884,1.0939,-0.9686,0.4959,0.7846,0.5302,0.4325,0.791,0.7619],"b2":[-0.8921,0.4015,-0.0875,-0.1417,0.2538,-0.3653,-0.2459,-0.0961],"w3":[-1.6108,0.3349,-0.9665,0.2345,0.0653,-0.358,1.5541,-0.5532,0.1485,0.2354,-1.0339,0.7151,0.611,-0.6993,0.0773,-0.6658,1.2474,-0.0141,0.46,0.1087,-0.5768,-0.8404,-0.2209,-0.0048,0.768,-0.5269,0.125,0.2637,-0.8648,1.1099,-0.5795,0.5466],"b3":[-0.1169,1.269,0.4822,-0.1587]},"kills":0,"foodEaten":9,"children":0,"reproductionCooldown":0},{"x":1000.68,"y":16,"angle":0.899,"energy":88.4,"age":3154,"generation":19,"parentId":9240,"bodyGenes":{"size":14,"maxSpeed":3.5,"turnSpeed":0.1078984193773784,"hue":69.5249086162147,"saturation":79.95551918880805,"aggression":0.7201400123115937,"efficiency":1.5},"brain":{"w1":[0.5849,-0.2657,-0.9015,0.0557,0.0904,0.2034,-0.1872,0.5767,-0.7038,0.8507,0.496,-0.5619,-1.2318,-0.0947,-1.2535,0.5435,-0.8806,-0.9665,-0.3537,0.2102,-0.8431,-0.1552,0.6228,0.5644,0.3889,0.6615,-0.5197,-0.476,-1.1658,0.3189,-0.6229,-0.5329,-0.2386,0.6202,0.0056,-0.0658,-0.3062,1.1562,-0.1489,-0.1143,1.1197,0.4001,-0.9298,0.5216,1.2202,0.346,-1.081,-0.5845,0.1396,-0.1444,-0.603,-0.0893,-0.597,0.5353,-0.2724,-0.4337,-0.4514,0.7363,-0.1961,0.124,-1.0319,-0.3465,-0.9292,-0.0899,1.3014,1.1376,1.0253,1.0175,-1.0242,0.2125,0.6146,0.6442,-0.6921,-0.4286,-0.2923,-0.5728,0.0125,-0.596,-1.0202,-0.0811,-0.9945,-2,0.5268,-1.4332,-1.0264,0.0372,0.48,0.8542,0.8274,-0.7522,-0.2547,0.1341,-0.7709,0.251,-0.44,0.2215,0.871,0.7124,-0.9502,0.9931,0.0068,0.8775,-0.3347,-0.613,-0.4994,-0.3785,0.5911,1.4362,-0.6022,0.146,0.666,0.9751,0.8293,0.9491,0.0264,-0.32,-1.0056,1.0849,0.4597,-0.3095,0.544,0.5649,0.0053,1.6192,-0.0877,-0.6731,-0.5193,0.0508,-0.2817,-0.9025,-0.5923,-0.7486,0.6992,0.4192,0.7954,0.3323,-0.6326,0.4749,0.6399,0.5332,-0.3673,0.0998,0.7506,1.8157,0.1776,0.0133,-0.6895,0.8825,-1.2132,-0.2104,0.7789,-0.12,-1.3095,0.99,1.3304,1.2143,-0.1674,0.5102,-0.3497,0.4203],"b1":[-0.2777,0.493,0.3641,0,0.5338,0.1163,0.519,0,0.0489,0.1096],"w2":[0.2543,-0.6332,1.7529,-0.0732,-0.6165,1.0406,0.5518,0.7369,-0.4828,0.3406,-0.0116,-1.0578,-0.6707,-1.0433,0.6333,0.0069,1.3357,-0.5697,-0.4576,0.6566,-0.5702,-0.5051,0.6912,-0.4179,0.162,1.1884,-0.7984,0.382,0.7905,0.7406,0.5407,-0.3753,0.4233,1.1869,0.6941,0.2811,0.5466,-0.6456,0.7574,-0.2696,-0.1163,-0.8552,0.4641,-0.1122,0.1192,0.6108,0.6151,-0.6197,-0.7598,0.8414,0.8407,-0.5109,1.3238,0.6342,-1.3068,1.0474,0.9604,0.8572,-0.1856,-0.0556,-0.0956,-1.5437,-0.3957,-0.7252,-1.2962,0.2146,0.4019,1.6637,0.7308,-0.4546,1.4817,-1.0072,0.7745,-0.9986,0.2279,0.6367,0.9166,0.4325,1.4063,0.486],"b2":[-0.6704,0.066,0.0606,-0.5944,0.2538,-0.8465,0.3242,0.1596],"w3":[-1.1228,0.7101,-1.3066,0.6861,0.0653,0.1857,1.7578,-0.5785,0.1485,0.2354,-1.3589,0.7988,0.875,-0.6993,0.0773,-0.6658,1.1116,0.497,0.9852,0.5343,-0.1867,-0.9325,0.6061,0.2426,0.8012,-0.5269,0.125,0.8195,-0.8648,1.2641,0.2226,0.3771],"b3":[0.1363,1.3313,0.0024,-0.3904]},"kills":1,"foodEaten":17,"children":6,"reproductionCooldown":0},{"x":88.36,"y":111.53,"angle":2.2,"energy":109,"age":3135,"generation":17,"parentId":10937,"bodyGenes":{"size":14,"maxSpeed":3.5,"turnSpeed":0.1078984193773784,"hue":344.0099486934072,"saturation":40,"aggression":0.2874183372866136,"efficiency":1.5},"brain":{"w1":[-0.3779,0.0702,-0.6775,-0.2299,0.1948,-0.2224,0.1823,1.4562,-0.8833,0.5748,1.4737,-0.6188,-1.4695,0.2999,-1.1348,0.2397,-1.1238,-0.9056,-0.373,-0.7096,-0.4893,-0.5012,0.6228,0.3289,0.3479,1.3096,-0.9128,-0.2105,-1.3241,0.3458,0.4049,-0.8855,-0.2915,0.6775,-0.1306,0.0472,-0.2145,0.2502,-0.1489,-0.1351,1.0256,0.4706,-0.7567,0.8171,0.9414,-0.171,-0.9585,-0.0805,-0.2659,0.3933,-0.534,-0.0937,-0.5002,0.2724,-0.7369,-0.2984,-0.1249,0.8665,-0.5778,0.1117,-1.0319,-0.4941,-0.8834,-0.0722,0.0938,0.4252,0.6689,1.0585,-1.3276,0.4953,1.102,0.7683,-0.4188,-0.1425,-0.7077,-0.3097,-0.3195,-0.1003,-0.8558,-0.3721,-0.9907,-1.5338,0.5628,-1.0508,-1.0264,-0.1218,0.3643,0.9308,1.0213,-0.7113,-0.5206,-0.3211,-0.6921,0.0993,-0.5443,0.885,0.8861,0.1799,-1.0032,0.7045,0.0682,0.9326,0.5564,-0.7669,-0.5983,0.0717,1.1255,1.4125,-0.3409,-0.2964,0.6003,0.1068,1.0162,0.376,0.2917,0.2261,-0.6123,1.4986,0.3703,-0.319,0.544,0.3701,0.0053,1.1848,0.9513,-0.3608,-0.8903,-0.1118,-0.57,-0.8318,-0.6917,-1.2164,0.1963,0.4192,0.5534,0.5398,-0.6578,0.7315,0.6426,0.6105,-0.2647,0.1149,1.2833,1.3207,0.0014,-0.8828,-0.2118,0.1002,-1.0689,-0.2104,0.0683,-0.2985,-0.7182,-0.0325,0.7364,0.7024,0.0412,0.231,-0.1272,0.402],"b1":[-0.1938,0.7671,0,-0.6398,-0.2012,0.4553,0.5546,-0.2125,0.1158,-0.113],"w2":[0.1614,-0.9206,0.8975,0.1307,-1.1737,1.0406,0.4675,1.4457,-0.3459,0.576,0.135,-0.2809,-0.4415,-0.1327,0.5087,0.7477,0.7509,-0.4373,-0.546,0.0277,-0.8409,-0.6326,1.0444,-0.3519,-0.0427,1.0842,-0.5856,0.382,-0.1675,0.5942,0.0623,-0.6868,-0.0565,0.8418,0.38,0.1148,-0.0113,-0.6239,0.984,-0.1117,0.0161,-0.8505,0.5248,0.4357,0.1413,0.2351,0.6151,-0.1778,-0.6209,0.3623,1.1545,-0.7118,0.9005,0.7892,-1.3215,0.8358,-0.1933,0.8572,-0.1957,0.4335,-0.5661,-1.2445,-0.6319,-1.1262,-0.9606,-0.3306,0.4793,1.5742,0.9104,-0.6096,0.8374,-0.6136,0.3631,-0.7485,0.2553,0.2748,0.933,0.4325,0.3249,0.6175],"b2":[-0.9317,0,0.1233,-0.7436,0.1187,0.0259,0.3242,0.0191],"w3":[-1.5522,0.608,-1.0843,0.1196,0.0811,-1.3558,0.9716,-1.0247,-0.1186,0.15,-0.4689,0.37,0.8981,-0.7434,-0.1872,-0.3811,1.0169,0.0237,0.5146,0.7338,0.0206,-1.0634,-0.7814,0.2656,0.6987,-0.6791,0.0243,0.7707,-0.8659,0.5068,0.2255,0.0475],"b3":[-0.1169,1.126,-0.1174,0.1347]},"kills":0,"foodEaten":13,"children":1,"reproductionCooldown":28},{"x":1161.53,"y":350.45,"angle":-12.076,"energy":88.9,"age":3134,"generation":26,"parentId":10516,"bodyGenes":{"size":14,"maxSpeed":3.5,"turnSpeed":0.08323968220819913,"hue":110.45271721314748,"saturation":71.13173186259183,"aggression":0.7201400123115937,"efficiency":1.5},"brain":{"w1":[0.2927,-0.2657,-0.5345,-0.1306,-0.0984,-0.2647,-0.204,0.8898,-0.7038,0.8946,-0.0679,-0.5033,-0.7071,-0.2632,-1.2535,0.6585,-1.0284,-0.9665,-0.3537,-0.5578,-0.8431,-0.1045,0.4079,0.0599,0.3312,-0.2428,-0.9669,-0.1872,-1.772,0.3189,0.0992,-0.2392,-0.2386,0.4655,-0.3666,0.7504,-0.3062,0.8162,-0.1689,-0.1143,0.8539,0.5396,-0.6314,0.072,1.2107,0.324,-0.7829,-0.727,-0.4236,-0.1444,-0.1546,0.2393,-0.597,0.5353,-0.2724,-0.4337,-0.6759,0.9722,-0.5455,-0.3732,-0.9763,-0.2364,-0.6766,-0.0899,1.108,1.6225,0.8453,0.8924,-0.8417,0.3258,0.656,0.2396,-0.9967,-0.4506,-0.1269,-0.2957,-0.5031,-1.1849,-1.3874,-0.0839,-1.0642,-2,1.5652,-1.4332,-1.1385,-0.0257,0.3814,0.8589,0.841,-1.313,-0.3229,-1.0075,-0.7709,0.5172,-0.7113,0.2215,0.871,0.9762,-0.825,0.9931,0.0277,0.5446,0.0829,-0.7018,-0.4994,-0.6087,0.9133,1.5331,-0.9843,0.2151,0.1996,1.107,0.8293,-0.1268,0.4194,-0.3713,-1.2675,0.9686,0.8565,0.0564,0.544,0.4175,0.0053,1.6894,0.1907,0.0736,-0.5565,-0.023,-0.2203,-0.9025,-0.6669,-1.0353,0.6992,0.6393,1.0043,0.3323,-0.8518,0.5131,0.2562,0.5332,-0.3528,0.066,0.4511,1.8157,0.5102,0.0494,-1.1629,0.5481,-1.2132,-0.521,0.2305,-0.1033,-1.8032,1.2462,1.3304,1.4233,-0.0909,0.3574,-0.3497,-0.4689],"b1":[-0.1158,0.4302,0.3122,-0.1562,0.7912,-0.0688,-0.3406,-0.1314,-0.3365,-0.204],"w2":[0.511,-0.6203,1.39,-0.0732,-1.2072,1.1742,-0.4045,0.8557,-0.5476,0.2355,-0.5555,-1.264,-1.2517,-0.6567,0.6333,0.0069,1.3357,-0.2361,-0.4158,0.5156,-0.3696,-0.8966,0.7978,-0.2602,0.3915,1.3777,-0.1043,0.3174,0.6575,0.7406,0.9536,-0.3753,0.7444,1.1869,1.2861,0.5546,0.4868,-1.3976,1.0072,-0.1925,-0.2503,-0.8552,0.9211,-0.8223,0.3773,0.227,0.6151,-0.5975,-0.7598,0.6319,0.1379,-0.469,0.8867,0.5319,-1.6144,1.0263,0.7942,0.9858,0.0093,-0.0556,0.0395,-1.7875,-0.1907,-0.6533,-1.768,0.0077,0.0496,1.6055,0.8893,0.0732,1.2433,-0.7093,0.5045,-0.9986,0.2279,0.3188,0.8511,0.508,1.4063,1.0272],"b2":[-0.5211,0.1987,0.2469,-0.4697,0.3962,-0.4943,0.1736,0.2758],"w3":[-1.6512,0.7101,-1.0406,1.0889,-0.4996,-0.358,1.8295,-0.699,-0.2194,0.3515,-1.0339,0.7988,0.915,-0.6993,-0.1353,-0.6658,0.5997,0.4238,0.8255,0.5343,0.1398,-0.4719,0.0528,0.2426,0.4547,-0.1683,-0.2039,1.1731,-1.0663,1.1449,0.5836,0.3974],"b3":[0.2762,1.3313,-0.2657,-0.6328]},"kills":0,"foodEaten":12,"children":1,"reproductionCooldown":0},{"x":1292.23,"y":756.64,"angle":-198.572,"energy":127.1,"age":3114,"generation":21,"parentId":10867,"bodyGenes":{"size":14,"maxSpeed":3.405862109944464,"turnSpeed":0.1078984193773784,"hue":91.30868647109332,"saturation":59.673796269123756,"aggression":0.9303527211711626,"efficiency":1.5},"brain":{"w1":[0.6894,-0.2657,-0.9015,-0.0627,0.0904,-0.6156,-0.6656,0.9785,-0.7038,0.7178,0.496,-0.7623,-1.2318,-0.0947,-1.2535,0.5435,-0.8806,-1.3405,-0.6313,-0.076,-0.7132,-0.3357,0.7401,0.5644,0.2115,0.5723,-0.5197,-0.552,-1.1658,-0.1393,-0.3164,-0.5329,0.2453,0.6202,0.0056,0.24,-0.3062,1.1562,-0.1489,-0.1143,1.4818,0.711,-0.9298,1.1502,0.8892,0.2889,-1.0003,-0.3702,0.1396,-0.1444,-0.2992,-0.0037,-0.0494,0.6541,0.2866,-0.6033,-0.4514,1.2446,-0.7982,-0.3156,-1.1691,-0.3465,-0.9498,-0.0899,1.376,1.1376,0.4944,1.3771,-1.0242,0.4689,0.4935,0.4753,-0.8852,-0.4286,-0.3147,-0.5728,0.0125,-0.596,-1.0202,-0.0811,-0.9945,-2,0.6828,-1.4332,-0.7598,-0.0168,0.585,1.2533,1.1995,-0.7195,0.0461,-0.318,-0.7709,0.251,-0.44,0.2681,0.871,1.1587,-0.9502,1.4236,0.4319,0.8793,0.0829,-0.613,-0.4994,-0.1191,0.6784,1.0266,-0.7131,0.146,0.666,1.2069,0.8293,0.6937,0.474,-0.32,-1.0056,1.0849,0.4597,-0.3095,0.8142,0.5649,0.331,1.5782,-0.2618,-0.7007,-0.5193,0.0508,-0.2817,-0.9025,-0.5923,-1.0376,0.6992,0.7517,0.564,0.3323,-0.6326,0.4749,0.6399,0.5332,-0.3643,0.0998,0.7252,1.8157,0.1776,0.108,-0.6895,0.8825,-1.2132,-0.2104,0.6497,-0.12,-1.1703,1.0782,1.6435,1.2143,-0.1674,0.904,-0.3497,0.4203],"b1":[-0.2761,0.6425,0.6198,0,0.6492,0.1163,0.519,0,-0.1931,-0.1278],"w2":[0.2543,-0.6203,1.7529,-0.0732,-0.5669,1.0406,0.1495,1.0341,-0.222,0.2104,0.1163,-1.6342,-0.8407,-1.0433,0.2114,0.0069,1.3357,-0.5697,-0.6916,0.3218,-0.5702,-0.7345,0.6912,-0.4179,0.162,1.0858,-0.5856,0.382,0.2399,0.7326,0.5407,-0.2999,0.4233,1.5759,0.6941,0.1025,0.5466,-0.6456,0.7574,-0.2238,-0.1163,-0.867,0.3971,-0.1062,0.1413,0.2849,0.4587,-0.3341,-0.7598,0.6355,0.5854,-0.4695,1.2158,0.0613,-1.3068,0.808,0.5601,0.8572,-0.5748,-0.0556,0.0395,-1.878,-0.3957,-0.8183,-1.293,-0.3097,0.4019,1.6637,0.7308,-0.4546,1.2433,-0.6136,0.7994,-0.8924,0.2279,0.4353,0.9166,0.3682,1.4063,0.741],"b2":[-0.8803,0.7764,-0.196,-0.6163,0.1268,-0.9053,0.3242,-0.5294],"w3":[-1.2864,0.7101,-1.146,1.2106,0.0653,-0.358,2,-0.9021,0.1485,0.0656,-1.0339,0.7988,0.8894,-0.8907,0.0773,-0.6658,1.3007,0.2852,0.9852,0.5343,-0.1867,-0.6665,0.0528,0.2426,0.8082,-0.1761,0.125,0.3227,-0.5748,0.8257,0.034,0.4395],"b3":[0.181,1.1714,0.1086,-0.8789]},"kills":1,"foodEaten":23,"children":6,"reproductionCooldown":0},{"x":363.18,"y":561.59,"angle":-111.982,"energy":103.9,"age":3072,"generation":20,"parentId":7848,"bodyGenes":{"size":14,"maxSpeed":3.5,"turnSpeed":0.1078984193773784,"hue":110.45271721314748,"saturation":67.87562386354331,"aggression":0.4918501686542107,"efficiency":1.3276387034062327},"brain":{"w1":[0.4517,-0.4018,-0.9015,-0.118,0.0904,-0.2647,-0.3675,0.8892,-0.7038,0.8839,0.798,-0.6302,-1.208,-0.0393,-1.2535,0.4116,-0.8806,-0.9665,-0.3537,-0.488,-0.8431,-0.1552,0.6228,0.5644,0.3889,0.0094,-0.9669,-0.3282,-1.683,0.2002,-0.4317,-0.0955,-0.2386,0.3112,-0.598,0.6722,-0.0297,1.4482,-0.1489,-0.1143,1.1197,0.5396,-0.9298,0.2912,1.2107,0.432,-1.081,-0.5845,0.1124,-0.1444,-0.1546,-0.0037,-0.5346,0.5353,-0.2724,-0.4337,-0.4514,0.9356,-0.5891,-0.0424,-1.4572,-0.3598,-0.9498,-0.207,1.108,1.1376,1.2983,1.0585,-1.0242,0.3258,0.656,0.6442,-0.8852,0.0618,-0.2923,-0.5728,0.0125,-0.596,-0.8369,0.2639,-1.2985,-2,0.5268,-1.4332,-1.1385,0.0372,0.48,1.4227,0.648,-0.7195,-0.5248,-0.1352,-0.9446,0.078,-0.7161,0.2215,0.871,0.8723,-0.9502,0.9931,0.3134,0.8775,0.0829,-0.613,-0.4994,-0.3785,0.4421,1.4667,-0.3409,0.0672,0.666,0.9751,0.8293,0.4526,0.5978,-0.32,-1.0056,1.0849,0.4597,-0.3095,0.6087,0.5649,0.0053,1.6192,-0.0877,-0.7007,-0.7801,0.0508,-0.2817,-0.9025,-0.5923,-0.7486,0.5649,0.4192,0.5534,0.3323,-0.505,0.4749,0.7916,0.5754,-0.8734,0.0998,0.3398,1.8157,-0.0455,0.0494,-0.7437,0.8825,-1.3544,-0.2104,0.7789,0.1046,-1.752,0.99,1.3304,1.2143,-0.1674,0.5102,-0.3497,0.4203],"b1":[-0.6697,0.493,0.483,0,0.344,0.6074,0.519,0,-0.6425,-0.204],"w2":[0.2543,-0.6203,1.7529,-0.0732,-0.4558,1.0406,0.4856,0.7369,-0.4828,0.1983,0.1532,-1.264,-0.5973,-1.0433,0.6349,0.0069,1.3357,-0.496,-0.4576,0.4068,-0.5702,-0.9351,0.6912,-0.395,0.5331,1.0858,-0.5856,0.1589,0.7905,0.7406,0.5407,-0.3176,0.4233,1.1869,0.6941,0.2811,0.9848,-1.0264,0.7574,-0.1925,-0.4092,-0.8552,0.6062,-0.1122,0.2349,0.3757,0.6151,-0.3341,-1.0605,0.1222,0.3155,-0.4695,1.3238,0.6034,-1.3068,1.0474,0.9604,0.8572,-0.1957,-0.0556,0.0395,-1.8145,-0.3694,-0.7252,-1.4067,-0.0441,0.4019,1.6637,0.7308,-0.4546,1.3928,-0.7991,0.6523,-1.3419,0.2279,0.4353,0.8552,0.728,1.4063,0.7619],"b2":[-0.6704,0.4204,-0.196,-0.2033,0.2538,-0.8465,0.3242,0.0216],"w3":[-1.4342,0.7101,-1.146,0.6913,-0.1863,-0.358,1.7578,-0.9553,0.01,0.2247,-1.0339,0.7988,0.875,-0.8387,0.4453,-0.5016,1.1116,0.5851,0.9852,0.5343,-0.1867,-0.9325,-0.1402,0.2426,0.5316,-0.5269,0.125,1.473,-1.0393,0.9281,0.0128,0.3771],"b3":[-0.1323,1.3313,0.2126,-0.3904]},"kills":0,"foodEaten":15,"children":2,"reproductionCooldown":0},{"x":565.17,"y":587.54,"angle":8.861,"energy":121.7,"age":3063,"generation":19,"parentId":10074,"bodyGenes":{"size":14,"maxSpeed":2.961088133571027,"turnSpeed":0.1078984193773784,"hue":34.71116396373037,"saturation":63.20030377695518,"aggression":1,"efficiency":1.5},"brain":{"w1":[-0.1136,-0.2657,-0.8395,0.0557,-0.0001,-0.5157,0.2755,0.8892,-0.8652,0.8301,0.9116,-0.5619,-1.2318,0.334,-0.7974,0.8656,-0.8806,-1.0218,-0.4571,-0.8283,-0.7482,-0.3176,0.6305,0.3929,0.2127,1.0602,-0.9378,-0.476,-1.276,0.027,0.2139,-0.0245,-0.4224,0.6528,-0.1342,0.2423,-0.1315,0.6339,-0.1769,-0.2756,0.9314,0.7518,-1.099,0.4971,0.8892,0.3882,-1.2073,-0.9579,0.0796,-0.1444,-0.0447,-0.0037,-0.6062,0.5353,-0.3164,-0.7703,-0.4514,1.0324,-0.4134,0.0522,-1.0319,0.0246,-1.3063,-0.2454,1.6671,0.9236,1.133,1.0585,-0.8689,0.013,0.859,0.6593,-0.8852,-0.4293,-0.5772,-0.3097,-0.0492,-0.234,-1.0601,-0.1535,-0.9907,-1.4413,0.5608,-0.8297,-0.9386,-0.1218,0.6112,0.8112,0.8746,-0.5825,-0.3158,-0.5836,-0.7154,0.5349,-0.6441,0.2942,0.871,1.0754,-0.9502,0.5282,0.3134,1.0107,0.0829,-0.7177,0.0819,-0.5074,1.098,1.0695,-0.5488,-0.3424,0.666,1.2232,0.8293,0.1754,1.1107,-0.1572,-0.8004,0.734,0.1803,-0.4494,0.4452,0.7366,-0.1676,1.8892,-0.0877,-0.5638,-0.4813,-0.1118,-0.497,-1.095,-0.5923,-1.1338,0.9927,0.4192,0.5534,0.3323,-0.6326,0.4749,1.2166,0.6044,-0.2047,-0.1651,0.6322,1.4583,0.5323,0.25,-0.4178,1.3002,-1.6987,-0.2104,0.0355,-0.2985,-0.587,1.0857,0.4733,1.6485,-0.1717,0.4688,-0.2869,0.337],"b1":[0.0253,0.493,0.2707,0,0.1788,0,0.2524,-0.1725,0.2178,0.0311],"w2":[0.5539,-0.9261,1.2136,0.1402,-1.0069,1.0406,0.2101,0.7369,-0.5518,0.3406,0.1708,-0.4539,-0.5306,-0.2363,0.6333,0.0069,1.5555,-0.5697,-0.3315,0.1267,-0.4938,-0.6326,0.4185,-0.3519,0.4145,0.8724,-0.7961,-0.1139,0.4622,0.7406,0.565,-0.1927,0.3555,0.9978,0.8706,0.1148,0.2072,-0.8416,1.19,-0.5095,-0.1163,-0.8552,0.9095,0.6926,-0.0821,0.2103,0.6114,-0.4722,-0.4175,0.5041,0.4599,-0.754,1.6224,0.6729,-1.4297,0.8358,0.9604,0.8572,-0.1957,0.515,-0.0464,-1.8145,-0.1574,-0.7252,-1.3164,0.0575,-0.0578,1.5672,0.5925,-0.6096,1.1824,-0.7986,0.3157,-0.768,-0.2909,0.6844,0.892,-0.2158,0.6343,1.0687],"b2":[-0.4288,0,-0.604,-0.5944,0.6706,0.0259,0.1499,-0.1185],"w3":[-1.5571,0.608,-0.9665,0.9998,0.0653,-0.8959,2,-0.5845,0.4205,0.2354,-0.4752,0.9319,0.611,-0.5297,0.0773,-0.6658,0.7505,0.2484,0.46,0.4489,-0.769,-1.1148,0.0878,0.3431,0.7593,-0.6298,0.0782,0.8831,-0.9461,0.832,-0.0807,0.4091],"b3":[0.0667,1.4771,0.0176,0.0845]},"kills":1,"foodEaten":13,"children":3,"reproductionCooldown":0},{"x":1201.56,"y":533.37,"angle":-4.078,"energy":114.4,"age":3057,"generation":21,"parentId":10982,"bodyGenes":{"size":14,"maxSpeed":3.4728522076301775,"turnSpeed":0.08697029947704157,"hue":91.30868647109332,"saturation":59.673796269123756,"aggression":0.7201400123115937,"efficiency":1.5},"brain":{"w1":[0.4195,0.2619,-1.196,0.0066,-0.0001,-0.2647,0.2037,1.07,-0.7038,0.7006,0.5469,-0.5619,-1.2318,-0.6301,-1.0522,0.5435,-0.8806,-1.0058,-0.3958,-0.3389,-0.8431,-0.2814,0.6228,-0.1737,0.8177,0.4877,-0.5197,-0.2374,-1.194,0.1483,0.1845,-0.5329,-0.2393,0.6775,0.6465,0.6512,-0.439,0.8014,-0.1489,-0.027,1.1197,0.3459,-0.9298,0.5508,0.8892,0.346,-1.1213,-0.5845,0.6779,-0.1444,-0.0978,-0.004,-0.6062,0.9868,-0.0855,-0.4187,-0.4514,1.1661,-0.8142,0.124,-0.9086,-0.6893,-0.9498,-0.2805,1.108,0.9347,0.6689,1.0585,-0.8315,0.2125,0.6146,0.6442,-0.7238,-0.6664,-0.1815,0.2628,0.0125,0.425,-1.0601,-0.4434,-0.7323,-1.6709,0.0985,-0.7628,-1.066,-0.5306,0.3921,0.3779,0.8746,-0.7195,-0.3198,-0.2872,-0.686,0.251,-0.315,0.5735,0.2556,0.7774,-0.9057,0.9758,0.5235,0.9151,-0.3396,-1.0279,-0.8242,-0.4933,0.5911,0.5193,-0.3409,-0.2105,0.3689,1.5493,0.6293,-0.0267,0.6219,0.8915,-1.1268,0.8008,0.4597,-0.3095,0.544,0.6745,-0.3199,1.0786,-0.4189,-0.6712,-0.4813,1.1556,0.1093,-0.9025,-0.4152,-1.2643,1.1695,0.483,0.5534,0.1801,-0.6326,0.4749,0.9226,0.6653,-0.0044,0.0998,0.7506,2,0.087,0.0494,-0.6895,0.8825,-1.0648,-0.2104,0.5328,-0.3021,-0.5256,0.9811,1.3304,1.3311,-0.1674,0.4688,-0.4568,0.5667],"b1":[0.1652,0.1474,0.483,0.048,0.8073,0.1163,0.3704,0.0679,-0.0947,0.0579],"w2":[0.4271,-0.6022,1.488,-0.0732,-0.3464,1.5374,0.2101,0.7369,-0.0933,0.3406,0.1532,-1.5723,-0.7172,-1.0022,0.8326,0.3096,1.1807,-0.4238,-0.4576,0.4888,-0.6264,-0.7345,0.6526,-1.1413,-0.0782,1.0858,-0.5642,0.3482,1.0201,1.1514,0.5407,-0.3753,0.4105,0.6272,1.1231,-0.12,0.4707,-0.2421,0.5804,-0.1925,0.1836,-0.7274,0.9324,-0.1122,-0.444,0.024,0.6542,-0.4722,-0.6099,0.6774,0.5854,-0.7118,1.0922,0.5858,-1.0724,1.0474,0.9604,1.2112,-0.1957,0.3431,-0.1343,-1.402,-0.3957,-0.5434,-1.5224,-0.1558,0.5546,1.3135,0.8493,-1.0645,1.423,-0.4178,0.5813,-0.9686,0.2279,0.2708,0.974,0.4325,0.7065,0.7619],"b2":[-0.8624,0,-0.4243,-0.1968,0.2538,0.0504,0.1472,0.0394],"w3":[-1.6108,0.5563,-0.8359,-0.0758,0.4281,-0.358,1.6746,-0.7974,0.1485,0.0423,-1.0339,0.7151,0.8182,-0.6993,0.0773,-0.609,0.9029,0.2852,0.46,0.2781,-0.4234,-1.2154,0.0528,0.4758,0.8845,-0.5269,0.125,0.5924,-0.8648,0.7778,-0.0486,0.3771],"b3":[-0.1169,1.5588,0.2126,-0.325]},"kills":0,"foodEaten":13,"children":1,"reproductionCooldown":0},{"x":947.73,"y":621.08,"angle":-84.177,"energy":59.9,"age":3054,"generation":20,"parentId":11012,"bodyGenes":{"size":14,"maxSpeed":3.5,"turnSpeed":0.059724917701298806,"hue":129.5198554478199,"saturation":59.673796269123756,"aggression":0.7863110060464067,"efficiency":1.5},"brain":{"w1":[0.5849,-0.2657,-0.9015,0.0561,0.0904,-0.6156,-0.2853,0.9785,-0.7038,0.8946,0.496,-0.5619,-1.2318,-0.0947,-1.2965,0.5435,-1.2734,-0.9665,-0.6313,-0.076,-0.9776,-0.1552,0.6228,0.5899,0.3889,0.8117,-0.5197,-0.1614,-1.1658,0.5664,0.1518,-0.6728,0.2453,0.4057,0.3088,0.4782,-0.3062,0.9975,-0.1489,-0.2138,1.206,0.5396,-0.9298,0.7663,0.5789,0.346,-1.081,-0.5845,0.1396,-0.1444,-0.194,-0.0037,-0.0762,0.5353,-0.2724,-0.6033,-0.4514,1.2446,-0.7842,0.124,-1.0319,-0.3465,-0.9498,-0.0899,1.376,1.1376,1.0253,0.9043,-1.0242,0.4689,0.4935,0.6442,-0.8852,-0.4286,-0.004,-0.2464,0.0125,-0.596,-1.0202,-0.0811,-0.9945,-2,0.5268,-1.4332,-1.0264,-0.3768,0.3384,1.1643,0.8274,-0.7195,0.1003,-0.318,-0.7709,0.251,-0.44,0.2215,0.871,0.9762,-0.9502,0.9931,0.3134,0.9084,-0.0383,-0.613,-0.4994,-0.3681,0.8678,1.0266,-0.7302,0.146,0.666,0.9751,0.8293,0.6937,0.474,0.047,-1.0056,1.0849,0.4597,-0.3095,0.584,0.5649,0.3869,1.6192,-0.0877,-0.7306,-0.6616,0.0508,-0.2817,-0.9025,-0.5923,-0.7486,0.6992,0.5681,0.5534,0.3323,-0.6326,0.4749,0.6399,0.5332,-0.3528,0.0998,0.7506,1.8157,0.1776,0.2187,-0.1743,0.8825,-1.3071,-0.2104,0.6497,-0.12,-1.3095,0.4502,1.3304,1.2143,-0.1674,0.904,-0.3497,0.4203],"b1":[0.2874,0.7952,0.483,0,0.3878,0.1163,0.519,0,0.0546,0.376],"w2":[0.6078,-0.3418,1.7529,-0.0732,-0.5003,1.2976,0.4856,0.7369,-0.4828,0.2104,-0.3265,-1.264,-0.7172,-1.0433,0.5042,0.0069,1.1056,-0.3466,-0.4576,0.4874,-0.2433,-0.4995,0.6912,-0.4179,0.4133,1.0858,-0.5856,0.382,0.7905,0.7406,0.5407,-0.3753,0.3808,1.2339,0.6941,0.2811,0.3693,-0.6456,0.7574,-0.2238,-0.1163,-0.867,0.4641,-0.1122,0.1413,0.2849,0.6151,-0.1205,-0.7598,0.5445,0.5854,-0.4695,1.5305,0.5493,-1.3068,1.0474,0.4188,1.1639,-0.3399,-0.0556,0.0395,-1.8883,-0.3957,-0.7252,-1.4067,-0.236,0.4019,1.6637,0.7308,-0.2892,1.2433,-0.6136,0.6523,-0.8607,0.2279,0.4353,0.9166,0.7573,1.4063,0.7619],"b2":[-0.6704,0.4411,-0.196,-0.6952,0.2538,-0.7389,0.1163,-0.5294],"w3":[-1.4342,0.7101,-1.146,0.6861,0.0653,-0.358,1.7578,-0.8947,0.1485,-0.2354,-1.0339,0.7988,0.875,-0.6993,-0.0471,-0.6658,1.1116,0.2852,0.9852,0.2799,-0.1867,-0.6665,0.0528,-0.0887,0.8012,-0.1761,0.125,0.5924,-0.865,0.9069,0.2226,0.6559],"b3":[-0.1252,1.1831,0.7359,-0.3904]},"kills":0,"foodEaten":21,"children":6,"reproductionCooldown":0},{"x":144.8,"y":454.12,"angle":-23.462,"energy":118.3,"age":3048,"generation":21,"parentId":10437,"bodyGenes":{"size":14,"maxSpeed":3.5,"turnSpeed":0.05307389039844192,"hue":303.1270976309513,"saturation":48.795953459052946,"aggression":1,"efficiency":1.5},"brain":{"w1":[-0.3779,-0.2657,-0.8489,0.1213,0.4114,-0.2647,0.1128,1.0546,-0.6085,0.2682,0.9116,-0.8517,-1.0397,0.8108,-1.1348,0.3383,-1.108,-1.0793,-0.2088,-0.7096,-0.4893,0.1789,0.6562,0.3143,0.4092,1.0725,-1.1434,-0.6503,-1.3241,0.3458,0.0181,-0.3907,-0.4351,0.7755,-0.1306,0.4489,-0.2145,0.6339,-0.066,-0.2468,0.789,0.4706,-0.7567,0.8171,0.9414,-0.1749,-0.9585,-0.0108,-0.108,0.3933,-0.694,-0.0937,-0.5002,0.3626,-0.7369,-0.0094,-0.1249,0.5929,-0.5778,0.1117,-0.9188,-0.4941,-0.7436,-0.2606,-0.286,0.4724,0.5949,0.6747,-1.061,0.4953,1.3004,0.6442,-0.498,-0.6767,-0.7077,-0.3097,-0.3195,-0.4001,-1.4104,-0.5263,-1.1971,-1.6809,0.2227,-0.7195,-1.0264,-0.8132,0.3643,1.4458,0.7971,-0.6763,-0.5206,-0.3544,-0.8591,0.0088,-0.7412,0.4619,0.0333,1.1171,-1.1099,0.4885,-0.1035,1.061,1.0105,-0.5295,-0.5033,0.16,1.0323,1.4125,-0.3409,-0.2964,-0.0062,-0.1316,0.9445,0.5768,0.2545,0.231,-0.7605,1.3611,0.345,-0.319,0.9339,0.3214,0.0053,1.2502,0.8666,-0.0507,-0.8779,-0.1975,-0.57,-1.1765,-0.6537,-1.2729,0.1963,0.3451,0.4099,0.9548,-0.257,1.0686,0.4896,0.6105,0.2357,-0.0247,0.7658,1.4325,-0.2056,-0.6103,-0.2118,0.4579,-1.0388,-0.2959,-0.2218,-0.2985,-0.7182,-0.1866,1.5531,0.2653,-0.7742,-0.046,0.065,0.2526],"b1":[-0.1938,0.376,0.2546,-0.8217,0.1353,0.2372,0.3951,-0.2125,-0.096,-0.2733],"w2":[0.013,-0.9191,0.8975,-0.5646,-0.8653,1.0406,0.2574,0.7011,-0.0308,0.576,0.135,-0.0709,-0.3724,-0.1327,0.5971,0.2095,0.7509,-0.1962,-0.3791,0.0277,-0.8409,-0.4618,0.7149,-0.569,0.1818,1.3493,-0.4475,0.8596,-0.0083,0.5942,0.0623,-0.6868,-0.0565,1.1849,0.6875,0.1148,0.1526,-0.7433,0.984,-0.3105,0.0875,-0.4588,0.3163,0.2053,-0.0687,0.5204,0.7858,0.1117,-0.7096,0.3623,1.4103,-0.6479,0.9086,0.9792,-1.3068,0.7243,-0.0558,1.0188,-0.4632,0.4335,-0.7227,-1.2445,-0.9993,-0.8016,-0.9771,-0.3306,0.4019,1.4643,0.467,-0.5033,0.5167,-1.4394,0.7816,-0.8542,0.2824,0.4353,0.2895,0.1605,0.3249,0.6175],"b2":[-0.8723,-0.0278,0.1518,-0.5366,-0.1581,0.5188,0.0987,0.0191],"w3":[-1.3601,0.6376,-1.0843,0.3561,0.0811,-1.8787,0.9716,-0.5761,0.3692,-0.5974,-0.3997,0.4346,0.8628,-1.2687,-0.2048,-0.5182,1.0169,0.5766,0.5023,0.5802,0.0206,-1.0634,-0.7814,0.034,0.6987,-1.123,0.3861,0.7707,-0.8648,0.4158,0.2255,0.0475],"b3":[-0.1169,0.9318,-0.0047,0.6425]},"kills":2,"foodEaten":15,"children":7,"reproductionCooldown":0},{"x":658.99,"y":38.42,"angle":-1.209,"energy":77.2,"age":3030,"generation":20,"parentId":10234,"bodyGenes":{"size":14,"maxSpeed":3.5,"turnSpeed":0.12545974544282362,"hue":344.9811623807687,"saturation":40.27607783664486,"aggression":0.35364436235973795,"efficiency":1.5},"brain":{"w1":[-0.3121,-0.0269,-0.6648,0.141,-0.2745,-0.5879,0.1499,0.8892,-0.6085,0.6772,1.0815,-0.5619,-1.2712,-0.1462,-0.9484,0.2827,-1.0246,-0.5518,-0.3263,-1.2568,-0.9831,-0.1878,0.8062,-0.2575,0.2322,1.0602,-0.5197,-0.1676,-1.1884,0.0913,0.5832,0.2469,-0.3871,0.6174,0.009,0.078,-0.7902,0.6339,-0.1489,-0.0378,1.1526,-0.0122,-0.1305,0.1991,1.0891,-0.1655,-1.2239,-0.2468,-0.2291,-0.0582,-0.2804,0.2007,-0.9945,0.4259,-0.3672,-0.7363,-0.7815,0.9488,-0.471,-0.1279,-1.0516,-0.617,-0.9873,-0.0052,0.8374,0.3508,0.9429,1.0585,-1.3826,0.3131,0.3962,0.6442,-0.8852,-0.0681,0.8033,-0.3097,0.5277,-0.4001,-1.2891,-0.3405,-1.2173,-1.5039,0.2827,-0.884,-1.0264,0.0547,0.434,0.5355,1.1661,-0.3775,-0.3158,-0.3209,-0.2138,-0.7503,-0.5039,0.0836,0.3571,0.9079,-0.6005,1.1047,0.1147,0.2422,0.0829,-0.7509,0.3575,-0.1821,0.8534,1.2847,-0.1494,-0.3255,0.6605,1.014,0.5474,0.5914,0.3081,-0.2436,-1.0056,0.9761,0.5969,-0.5606,1.4158,0.5821,0.6838,0.8265,0.2202,-0.5638,-0.0608,-0.2162,-0.3377,-0.9507,-0.1601,-0.8922,1.7222,0.4192,0.8087,0.4042,-0.6578,-0.3406,0.5268,0.8774,-0.2047,-0.0174,0.3845,1.2251,0.2093,-0.2394,-0.8005,1.0413,-1.3903,-0.2104,0.2587,-0.3756,-0.5023,0.8059,1.0092,0.9286,0.1547,-0.1686,-0.2947,0.402],"b1":[0,0.4174,0.1289,0,0.2612,-0.3605,0.0206,-0.4319,0.0489,0.3037],"w2":[0.0854,-1.3611,0.8341,0.0938,-0.6173,0.8489,0.7015,0.6187,-0.5329,-0.059,0.1532,-1.3881,-0.2722,0.3321,0.3189,0.2562,0.7801,-0.5339,-0.7947,0.4357,-0.6885,-0.5802,1.1079,-0.2637,-0.2423,1.0858,-0.9168,0.5358,0.3816,1.6451,-0.1064,-0.4921,0.614,1.13,0.3851,0.2387,0.4101,-0.6219,0.7733,-0.3273,0.0857,-1.4455,0.6667,-0.1716,0.1413,0.5248,0.6151,-0.2287,-0.6209,0.1007,0.4516,-0.7118,1.4527,0.8705,-0.7473,1.0207,-0.072,1.2298,-0.3151,0.4479,-0.4802,-1.2445,-0.3957,-0.6398,-1.5047,0.4704,0.4019,1.2149,0.6326,-0.4133,1.1406,-0.6136,0.5375,-0.7485,0.243,0.1903,0.1249,0.4325,1.0091,1.3083],"b2":[-0.6704,-0.6253,-0.5981,-0.9134,0.6158,-0.0426,0.4651,0.0191],"w3":[-0.8157,0.827,-0.9665,0.7701,0.6745,-0.714,0.9545,-0.4497,0.2826,0.0004,-0.1805,1.4471,0.7306,-0.0938,0.0377,-0.5262,1.7903,-0.161,0.76,0.3789,-0.3496,-1.0634,-0.3202,-0.0805,0.6122,-0.904,-0.355,0.8364,-0.8648,-0.1678,-0.2336,0.6583],"b3":[-0.3528,0.8842,0.275,0.2016]},"kills":0,"foodEaten":10,"children":2,"reproductionCooldown":0},{"x":124.33,"y":528.03,"angle":1.236,"energy":99.3,"age":3026,"generation":21,"parentId":9187,"bodyGenes":{"size":14,"maxSpeed":3.5,"turnSpeed":0.1078984193773784,"hue":37.465850758470424,"saturation":50.98380525570518,"aggression":0.7201400123115937,"efficiency":1.431756047665237},"brain":{"w1":[0.437,-0.5491,-0.9015,0.0557,0.1212,-0.2647,-0.2853,0.8892,-0.7038,0.8946,1.2663,-0.5619,-1.4845,-0.0947,-1.2535,0.5435,-0.8806,-0.9665,-0.3537,-0.1217,-0.8964,-0.1552,1.0271,0.5644,0.5065,0.7622,-0.5197,-0.476,-0.8926,0.7186,-0.3164,-0.5329,-0.2386,0.571,0.0056,0.0555,-0.1081,1.1562,0.1466,-0.1143,1.1197,0.5375,-0.9472,0.4715,0.8892,0.4034,-0.9212,-0.826,-0.5153,-0.2038,0.3523,0.0092,-0.3789,0.3362,-0.2131,-0.4337,-0.4514,0.8583,-0.4731,0.124,-1.0319,-0.1005,-0.652,-0.1537,1.108,1.0652,0.9756,0.5697,-1.3144,0.2125,0.7972,0.9432,-0.8852,-0.1739,0.2038,-0.5728,0.0125,-0.913,-1.0202,-0.5208,-0.8807,-1.831,0.5268,-1.4304,-0.8686,-0.0591,0.0474,0.4829,0.8274,-0.7195,-0.2547,-0.4629,-0.7559,0.251,-0.44,0.2215,0.871,0.9762,-0.9502,0.9931,0.3134,0.5672,0.1268,-0.7215,-0.4994,-0.2044,0.8389,1.0266,-0.327,-0.1735,0.666,0.9851,0.8293,0.3379,0.5978,-0.356,-1.0056,1.0849,0.4597,-0.3095,1.3247,0.2888,0.0053,1.6192,-0.0877,-0.9456,-0.4222,-0.1031,-0.7448,-0.9025,-0.5923,-0.3423,0.8185,0.4192,0.3468,0.3323,-0.6326,0.4749,0.7942,0.5332,-0.3528,0.0998,1.0449,1.7933,0.1022,0.2286,-1.0235,1.3872,-1.2132,-0.2104,1.0171,-0.12,-1.3095,0.99,1.3304,0.7139,-0.1674,0.5102,-0.3497,0.5299],"b1":[-0.2777,0.493,0.692,0,0.5338,0.1163,0.3558,0,0.0489,0.2916],"w2":[0.2543,-0.7534,1.2079,-0.1507,-0.6165,1.3227,0.4343,0.5602,-0.8511,0.6997,0.1532,-1.264,-0.7038,-0.9977,0.5777,0.0069,1.6064,-1.0718,-0.4576,0.6566,-0.5702,-0.9776,0.5837,-0.4179,0.162,1.0387,-0.6962,0.382,0.805,0.4271,0.5407,-0.2355,0.5151,1.0563,0.6941,0.1112,0.5632,-0.4793,1.0743,-0.4311,-0.5824,-0.8939,0.255,-0.1122,0.1413,-0.0584,0.142,-0.1187,-0.5982,0.6319,0.5854,-0.4695,1.3238,0.5493,-1.3068,1.0474,0.9604,0.64,-0.1957,-0.0925,0.0395,-1.8145,-0.2311,-0.7252,-1.4067,-0.0884,0.4019,1.7329,0.7308,-0.3828,1.2433,-0.2863,0.6523,-0.9986,0.2279,0.4905,0.8331,0.4325,1.3816,0.7619],"b2":[-0.6704,0.42,-0.196,-0.5944,0.2538,-0.8465,0.4388,-0.2056],"w3":[-1.4342,0.7101,-1.146,0.939,0.0653,-0.2949,1.7578,-0.699,0.2199,0.1642,-1.2374,0.8676,1.1872,-0.6244,0.0773,-0.6658,0.6514,0.3193,0.9852,0.5343,-0.1867,-0.9325,0.0269,-0.1243,0.8012,-0.5269,0.1196,0.5924,-1.1673,0.7077,-0.1996,0.1043],"b3":[-0.0181,1.4788,0.3201,-0.3904]},"kills":0,"foodEaten":13,"children":2,"reproductionCooldown":45},{"x":618.41,"y":849.66,"angle":1.642,"energy":126.6,"age":2978,"generation":26,"parentId":11088,"bodyGenes":{"size":14,"maxSpeed":3.5,"turnSpeed":0.09984013906431714,"hue":134.9964211318778,"saturation":60.600742880494316,"aggression":0.692191777991243,"efficiency":1.5},"brain":{"w1":[-0.8386,0.1192,-0.1303,0.0574,0.1683,0.414,0.4636,0.7873,-1.382,0.3091,0.6849,-0.6408,-1.5922,0.6997,-0.4792,1.1716,-0.8806,-0.5532,-0.3411,0.0538,-0.6742,-0.7921,0.4437,0.3289,-0.1535,0.8953,-1.0758,-0.3409,-1.3354,0.4692,0.3495,-0.037,-0.2932,0.6775,-0.4283,-0.4159,-0.3905,0.4736,-0.4241,-1.3528,0.6302,1.2069,-0.2174,0.6826,0.9088,-0.1236,-1.0786,-0.2297,-0.0555,0.4562,0.062,0.1994,-0.842,0.997,-0.5495,-0.1706,-0.6749,0.8471,-0.5918,-0.1418,-1.3051,-0.6753,-1.0813,0.0222,0.7981,0.8415,0.7776,1.4737,-1.7587,-0.0042,0.6146,-0.0702,-0.7281,-0.1313,0.323,-0.161,0.6552,-0.3002,-1.1984,-0.6567,-0.7477,-2,-0.0224,-1.0413,-1.3384,0.0823,0.1166,0.8472,0.8746,-0.6486,-0.0328,0.0429,-1.1577,0.4377,-0.1618,-0.0715,1.2012,0.6388,-1.4621,1.2112,0.3134,0.9505,0.1821,-0.4747,0.3874,-0.4865,1.0802,0.9302,-0.5315,-0.389,1.2368,1.1895,0.7015,0.0685,0.793,-1.3051,-0.5166,0.9507,0.4126,-0.4819,1.2719,0.7038,0.4448,1.4439,0.418,-0.5214,-0.5307,-0.1556,-0.4151,-0.5395,0.3899,-1.0576,1.1374,0.3979,-0.3434,0.4042,-1.0406,-0.6195,0.7962,0.7035,-0.2335,0.1411,0.7658,1.1697,0.2093,0.0494,-1.3579,0.8825,-1.2647,-0.1357,0.4318,0.0046,-0.5337,0.0109,0.5496,1.1194,-0.0245,0.6299,-0.1655,0.9293],"b1":[0,0.2156,0.6542,-0.4866,-0.2452,-0.167,0.3753,-0.1484,0.0489,0.9624],"w2":[0.1035,-0.9417,0.4629,-0.0732,-0.6173,0.9421,0.4611,0.8768,-0.4828,0.6377,-0.5924,-0.9382,-0.849,-0.2648,1.1434,0.3089,0.5537,0.7067,-0.9253,-0.3752,-0.9142,-0.5108,0.5652,-0.3519,0.5379,1.2056,-0.9252,0.4142,1.0131,0.5424,0.5949,-0.5817,0.3863,0.8773,0.5096,0.2038,-0.5699,-0.2909,0.887,-0.426,-0.4504,-1.176,0.4242,0.3298,-0.2253,0.2845,0.2644,-0.4011,-1.1053,-0.2775,0.0838,-0.883,1.3721,1.752,-1.3068,1.157,0.1759,0.4466,-0.2307,0.0879,-1.3258,-0.8832,-1.0631,-0.5422,-1.252,0.2513,0.8163,1.3729,0.9033,0.028,0.6773,-0.6136,-0.1834,-0.9717,0.2279,-0.098,-0.0139,0.4325,0.5347,0.7619],"b2":[-0.7965,0,-0.4071,-1.3746,0.0205,0.5891,-0.105,0.0485],"w3":[-0.9605,0.6144,-0.6322,0.0994,0.133,-1.1392,1.1238,-0.7165,0.7044,0.3008,-0.6982,2,0.3667,-0.7276,-0.1325,-0.0809,0.5597,-0.3518,0.016,0.1155,-0.322,-1.3689,-0.9025,0.2354,0.9552,-0.8091,-0.392,0.8014,-1.3959,-0.019,-0.4752,0.7464],"b3":[-0.1169,0.1959,0.1812,0.0845]},"kills":0,"foodEaten":11,"children":1,"reproductionCooldown":0},{"x":1258.13,"y":742.13,"angle":-247.321,"energy":9.1,"age":2957,"generation":21,"parentId":10948,"bodyGenes":{"size":14,"maxSpeed":2.3391597329287164,"turnSpeed":0.18907472612105636,"hue":85.48622634060956,"saturation":40,"aggression":0.6842557466490253,"efficiency":1.5},"brain":{"w1":[-0.5649,-0.2657,-0.6775,0.2646,-0.0853,-0.5526,0.1823,0.9864,-0.7234,0.5935,0.9116,-0.7237,-1.3786,0.1353,-1.6791,0.3383,-0.9138,-1.0944,-0.3537,-0.7096,-0.4893,-0.5012,0.6228,0.3289,0.3479,0.7634,-0.9128,-0.2105,-1.5639,0.1517,0.4049,-0.0063,-0.0379,0.9841,-0.1306,0.2079,-0.1798,0.0641,0.3882,-0.2837,0.8068,0.4706,-0.7567,0.8171,0.252,-0.187,-0.9585,0.1181,-0.055,1.3589,-0.8658,0.2439,-0.6332,0.4317,-0.7369,0.0648,-0.2109,0.8665,-0.4951,0.59,-1.0319,-0.4941,-0.647,-0.0317,-0.804,0.6507,-0.1875,1.0585,-1,0.7605,0.8404,0.5689,-0.7989,-0.0014,-0.643,-0.3097,-0.839,0.0656,-1.1839,-0.3721,-1.2682,-1.5055,0.5444,-0.7334,-1.5309,-0.5141,0.3643,1.3341,1.2616,-0.7758,-0.4151,0.0143,-0.7154,-0.0332,-0.6212,0.5554,0.871,0.8803,-1.0032,0.6342,0.0048,0.7485,0.4061,-0.7669,-0.7777,0.2824,0.9735,1.7499,-0.3409,-0.0524,0.0596,-0.0074,0.9797,0.5205,0.2917,-1.0963,-0.7431,1.4986,0.6196,-0.5605,1.0726,0.1676,-0.445,1.2502,1.1325,-0.3608,-1.1563,-0.4016,-0.57,-1.1558,-0.6837,-1.2164,0.7243,0.4192,0.2677,0.5398,-0.7011,0.4676,0.7398,0.8663,-0.6414,0.1489,0.5742,1.3207,0.0014,-0.7718,-0.2118,0.3936,-1.0689,-0.2104,0.401,-0.2985,-0.508,0.8547,0.8142,0.7024,0.0412,0.231,-0.1193,0.402],"b1":[-0.1938,0.3186,0,-0.9086,0.3036,0,0.8485,0.0562,-0.0273,-0.0226],"w2":[0.4272,-0.9206,0.8975,-0.2746,-0.8653,1.3182,0.8928,0.9082,-0.5471,0.576,0.135,-0.0168,-0.4763,0.0749,0.4191,0.7377,0.4973,-0.3537,-0.4486,0.3044,-0.5855,-0.2321,0.7422,-0.2564,0.2811,1.3665,-0.5625,0.513,-0.0146,0.7538,0.1055,-0.8246,-0.0451,0.7655,0.6662,0.1148,0.4545,-0.6239,0.7189,0.5073,0.0087,-0.7833,0.0863,0.2709,0.1413,0.2351,0.6151,-0.4722,-0.8641,0.3623,1.1442,-1.3833,1.3238,0.6636,-1.3068,1.4854,-0.1629,0.8572,-0.4071,0.4335,-0.4542,-1.0473,0.0413,-1.1262,-1.0209,-0.3306,0.0051,1.831,0.8251,-0.5681,1.1403,-0.9006,0.3192,-0.7485,0.0877,0.4353,0.5936,0.9175,0.3249,0.7048],"b2":[-0.5839,0.0365,-0.158,-0.8192,0.0792,0.0259,0.3242,0.2553],"w3":[-1.354,0.8605,-1.3833,0.0943,-0.3888,-1.3558,0.8332,-0.9193,0.0077,0.4789,-0.3997,0.6279,0.6794,-0.714,-0.0724,-0.4242,1.0544,0.5236,0.1664,0.7146,0.2808,-1.0634,-0.4441,-0.1214,0.9844,-0.7273,-0.1237,0.8258,-0.8648,0.5068,0.0616,0.6056],"b3":[-0.1169,1.0014,0.029,0.0845]},"kills":0,"foodEaten":6,"children":0,"reproductionCooldown":0},{"x":774.71,"y":698.72,"angle":-124.175,"energy":128,"age":2893,"generation":20,"parentId":7848,"bodyGenes":{"size":14,"maxSpeed":3.5,"turnSpeed":0.1078984193773784,"hue":110.45271721314748,"saturation":67.87562386354331,"aggression":0.5389294647870659,"efficiency":1.5},"brain":{"w1":[0.5849,-0.5226,-0.9015,-0.4105,0.0904,-0.2647,-0.2853,0.8892,-0.7038,0.8839,0.496,-0.6302,-1.208,-0.0393,-1.2535,0.4116,-0.8806,-0.767,-0.3537,-0.076,-0.8431,-0.1552,0.6228,0.4479,0.3889,0.0094,-0.9669,-0.3282,-1.683,0.3189,-0.4317,-0.0955,-0.2386,0.6202,-0.3666,0.6722,-0.2244,1.1562,-0.0272,-0.1143,1.1197,0.5396,-0.9298,0.6263,1.2107,0.2201,-1.081,-0.5845,0.1124,-0.1444,-0.1546,-0.1723,-0.4592,0.5353,-0.6595,-0.4337,-0.4514,0.9356,-0.5891,-0.0424,-1.5858,-0.3465,-0.9498,-0.207,1.3275,1.1376,1.2983,1.0585,-1.0242,0.3258,0.656,0.6442,-0.8852,-0.7626,-0.1035,-0.5728,0.0125,-0.596,-0.8369,-0.0811,-1.2985,-2,0.5268,-1.4332,-0.9867,0.0372,0.48,1.4227,0.841,-0.7195,-0.5248,-0.318,-1.4208,0.251,-0.7161,0.2215,0.871,